{"learner":{"attributes":{"scikit_learn":"{\"_estimator_type\": \"classifier\"}"},"feature_names":["V1","V2","V3","V4","V5","V6","V7","V8","V9","V10","V11","V12","V13","V14","V15","V16","V17","V18","V19","V20","V21","V22","V23","V24","V25","V26","V27","V28","Scaled_Amount","Scaled_Time"],"feature_types":["float","float","float","float","float","float","float","float","float","float","float","float","float","float","float","float","float","float","float","float","float","float","float","float","float","float","float","float","float","float"],"gradient_booster":{"model":{"cats":{"enc":[],"feature_segments":[],"sorted_idx":[]},"gbtree_model_param":{"num_parallel_tree":"1","num_trees":"500"},"iteration_indptr":[0,1,2,3,4,5,6,7,8,9,10,11,12,13,14,15,16,17,18,19,20,21,22,23,24,25,26,27,28,29,30,31,32,33,34,35,36,37,38,39,40,41,42,43,44,45,46,47,48,49,50,51,52,53,54,55,56,57,58,59,60,61,62,63,64,65,66,67,68,69,70,71,72,73,74,75,76,77,78,79,80,81,82,83,84,85,86,87,88,89,90,91,92,93,94,95,96,97,98,99,100,101,102,103,104,105,106,107,108,109,110,111,112,113,114,115,116,117,118,119,120,121,122,123,124,125,126,127,128,129,130,131,132,133,134,135,136,137,138,139,140,141,142,143,144,145,146,147,148,149,150,151,152,153,154,155,156,157,158,159,160,161,162,163,164,165,166,167,168,169,170,171,172,173,174,175,176,177,178,179,180,181,182,183,184,185,186,187,188,189,190,191,192,193,194,195,196,197,198,199,200,201,202,203,204,205,206,207,208,209,210,211,212,213,214,215,216,217,218,219,220,221,222,223,224,225,226,227,228,229,230,231,232,233,234,235,236,237,238,239,240,241,242,243,244,245,246,247,248,249,250,251,252,253,254,255,256,257,258,259,260,261,262,263,264,265,266,267,268,269,270,271,272,273,274,275,276,277,278,279,280,281,282,283,284,285,286,287,288,289,290,291,292,293,294,295,296,297,298,299,300,301,302,303,304,305,306,307,308,309,310,311,312,313,314,315,316,317,318,319,320,321,322,323,324,325,326,327,328,329,330,331,332,333,334,335,336,337,338,339,340,341,342,343,344,345,346,347,348,349,350,351,352,353,354,355,356,357,358,359,360,361,362,363,364,365,366,367,368,369,370,371,372,373,374,375,376,377,378,379,380,381,382,383,384,385,386,387,388,389,390,391,392,393,394,395,396,397,398,399,400,401,402,403,404,405,406,407,408,409,410,411,412,413,414,415,416,417,418,419,420,421,422,423,424,425,426,427,428,429,430,431,432,433,434,435,436,437,438,439,440,441,442,443,444,445,446,447,448,449,450,451,452,453,454,455,456,457,458,459,460,461,462,463,464,465,466,467,468,469,470,471,472,473,474,475,476,477,478,479,480,481,482,483,484,485,486,487,488,489,490,491,492,493,494,495,496,497,498,499,500],"tree_info":[0,0,0,0,0,0,0,0,0,0,0,0,0,0,0,0,0,0,0,0,0,0,0,0,0,0,0,0,0,0,0,0,0,0,0,0,0,0,0,0,0,0,0,0,0,0,0,0,0,0,0,0,0,0,0,0,0,0,0,0,0,0,0,0,0,0,0,0,0,0,0,0,0,0,0,0,0,0,0,0,0,0,0,0,0,0,0,0,0,0,0,0,0,0,0,0,0,0,0,0,0,0,0,0,0,0,0,0,0,0,0,0,0,0,0,0,0,0,0,0,0,0,0,0,0,0,0,0,0,0,0,0,0,0,0,0,0,0,0,0,0,0,0,0,0,0,0,0,0,0,0,0,0,0,0,0,0,0,0,0,0,0,0,0,0,0,0,0,0,0,0,0,0,0,0,0,0,0,0,0,0,0,0,0,0,0,0,0,0,0,0,0,0,0,0,0,0,0,0,0,0,0,0,0,0,0,0,0,0,0,0,0,0,0,0,0,0,0,0,0,0,0,0,0,0,0,0,0,0,0,0,0,0,0,0,0,0,0,0,0,0,0,0,0,0,0,0,0,0,0,0,0,0,0,0,0,0,0,0,0,0,0,0,0,0,0,0,0,0,0,0,0,0,0,0,0,0,0,0,0,0,0,0,0,0,0,0,0,0,0,0,0,0,0,0,0,0,0,0,0,0,0,0,0,0,0,0,0,0,0,0,0,0,0,0,0,0,0,0,0,0,0,0,0,0,0,0,0,0,0,0,0,0,0,0,0,0,0,0,0,0,0,0,0,0,0,0,0,0,0,0,0,0,0,0,0,0,0,0,0,0,0,0,0,0,0,0,0,0,0,0,0,0,0,0,0,0,0,0,0,0,0,0,0,0,0,0,0,0,0,0,0,0,0,0,0,0,0,0,0,0,0,0,0,0,0,0,0,0,0,0,0,0,0,0,0,0,0,0,0,0,0,0,0,0,0,0,0,0,0,0,0,0,0,0,0,0,0,0,0,0,0,0,0,0,0,0,0,0,0,0,0,0,0,0,0,0,0,0,0,0,0,0,0,0,0,0,0,0,0,0,0,0,0,0,0,0,0,0,0,0,0,0,0,0,0,0,0,0,0,0,0,0,0,0,0,0,0,0,0],"trees":[{"base_weights":[1.4337455E-7,1.8636624E0,-1.5318881E0,-1.1765134E0,1.9057434E0,-1.7472707E0,-1.5911534E-1,-2.0009331E-1,1.3889321E0,1.9893948E0,1.112078E0,5.6889232E-2,-1.8053981E0,9.95166E-1,-8.888698E-1,1.9211543E0,-1.9220313E-1,1.990788E0,-1.8867756E-1,1.3025942E0,-1.9975337E-1,1.0849398E0,-2.001139E-1,-1.8360602E0,1.9273227E-1,1.3638561E0,-9.127525E-1,7.15745E-2,-1.6127905E0,-1.3878667E-1,1.9816555E-1,-1.6839463E-1,1.9912453E0,1.6041605E0,-3.5294273E-1,-1.9924198E-1,1.60455E0,-1.2957493E0,-1.9145422E0,1.5778488E0,-1.9981804E-1,1.755044E0,3.1643847E-1,-1.9994208E-1,1.7684469E0,7.9507715E-1,-2.001236E-1,-3.7552196E-1,-2.00381E-1,1.9914196E-1,-1.3364641E-1,-1.9802521E-1,1.6815598E-1,-1.9996943E-1,1.817705E-1,-1.973858E-1,1.8609941E-1,-1.858531E-1,-4.2229734E-2,-1.9625254E-1,-1.3856189E-1,-1.9512407E-1,1.8685947E-1,1.8198672E-1,-1.9474223E-1,-1.997616E-1,1.7135803E-1,-1.7879744E-1,1.9816555E-1,-1.993578E-1,1.1344584E-1,-1.9992486E-1,1.3488676E-1],"categories":[],"categories_nodes":[],"categories_segments":[],"categories_sizes":[],"default_left":[0,0,0,0,0,0,0,0,0,0,0,0,0,0,0,0,0,0,0,0,0,0,0,0,0,0,0,0,0,0,0,0,0,0,0,0,0,0,0,0,0,0,0,0,0,0,0,0,0,0,0,0,0,0,0,0,0,0,0,0,0,0,0,0,0,0,0,0,0,0,0,0,0],"id":0,"left_children":[1,3,5,7,9,11,13,-1,15,17,19,21,23,25,27,29,-1,31,-1,33,-1,35,-1,37,39,41,43,45,47,-1,-1,-1,49,51,53,-1,55,57,59,61,-1,63,65,-1,67,69,-1,71,-1,-1,-1,-1,-1,-1,-1,-1,-1,-1,-1,-1,-1,-1,-1,-1,-1,-1,-1,-1,-1,-1,-1,-1,-1],"loss_changes":[3.2544438E5,6.5815938E3,1.8498734E4,1.4890903E3,3.3655781E3,5.6716406E3,7.1491704E3,0E0,3.0590277E2,2.5154688E2,2.8693633E3,3.575665E3,3.2103125E3,2.3137598E3,3.6154072E3,3.2429688E1,0E0,8.0421875E1,0E0,2.2772778E3,0E0,1.8052911E3,0E0,2.1856406E3,2.4088738E3,1.1284692E3,1.5564624E3,3.354491E3,1.4336943E3,0E0,0E0,0E0,2.9265625E1,1.073584E3,2.518294E3,0E0,8.8898267E2,3.2178262E3,1.1407344E3,5.025692E2,0E0,4.849922E2,2.429823E3,0E0,1.2050406E2,1.5714127E3,0E0,1.9997407E3,0E0,0E0,0E0,0E0,0E0,0E0,0E0,0E0,0E0,0E0,0E0,0E0,0E0,0E0,0E0,0E0,0E0,0E0,0E0,0E0,0E0,0E0,0E0,0E0,0E0],"parents":[2147483647,0,0,1,1,2,2,3,3,4,4,5,5,6,6,8,8,9,9,10,10,11,11,12,12,13,13,14,14,15,15,17,17,19,19,21,21,23,23,24,24,25,25,26,26,27,27,28,28,32,32,33,33,34,34,36,36,37,37,38,38,39,39,41,41,42,42,44,44,45,45,47,47],"right_children":[2,4,6,8,10,12,14,-1,16,18,20,22,24,26,28,30,-1,32,-1,34,-1,36,-1,38,40,42,44,46,48,-1,-1,-1,50,52,54,-1,56,58,60,62,-1,64,66,-1,68,70,-1,72,-1,-1,-1,-1,-1,-1,-1,-1,-1,-1,-1,-1,-1,-1,-1,-1,-1,-1,-1,-1,-1,-1,-1,-1,-1],"split_conditions":[-1.7859976E0,-4.8604634E-1,1.620582E0,1.5157312E0,-1.4160796E0,-9.853448E-1,-2.201951E-1,-2.0009331E-1,-1.0690001E0,5.767415E-1,4.7627756E-1,-7.4986964E-2,2.4990346E0,3.6880842E-1,1.06149286E-1,8.8412404E-1,-1.9220313E-1,-7.0277715E-1,-1.8867756E-1,5.2214855E-1,-1.9975337E-1,3.127109E-2,-2.001139E-1,-8.069166E-1,-5.366979E-1,-5.725717E-1,2.1755762E0,-4.3405853E-2,-6.861937E-1,-1.3878667E-1,1.9816555E-1,-1.6839463E-1,2.1790798E0,-5.603482E-2,1.0116773E0,-1.9924198E-1,-2.1592973E-1,2.8455114E-1,1.0663408E0,2.8455114E-1,-1.9981804E-1,1.2034454E0,1.1736002E0,-1.9994208E-1,1.3146542E0,-5.494696E-2,-2.001236E-1,-7.6125324E-1,-2.00381E-1,1.9914196E-1,-1.3364641E-1,-1.9802521E-1,1.6815598E-1,-1.9996943E-1,1.817705E-1,-1.973858E-1,1.8609941E-1,-1.858531E-1,-4.2229734E-2,-1.9625254E-1,-1.3856189E-1,-1.9512407E-1,1.8685947E-1,1.8198672E-1,-1.9474223E-1,-1.997616E-1,1.7135803E-1,-1.7879744E-1,1.9816555E-1,-1.993578E-1,1.1344584E-1,-1.9992486E-1,1.3488676E-1],"split_indices":[13,3,3,29,11,19,7,0,6,9,25,11,6,12,5,10,0,10,0,14,0,27,0,13,25,11,16,11,17,0,0,0,6,15,28,0,3,14,6,14,0,2,21,0,6,22,0,17,0,0,0,0,0,0,0,0,0,0,0,0,0,0,0,0,0,0,0,0,0,0,0,0,0],"split_type":[0,0,0,0,0,0,0,0,0,0,0,0,0,0,0,0,0,0,0,0,0,0,0,0,0,0,0,0,0,0,0,0,0,0,0,0,0,0,0,0,0,0,0,0,0,0,0,0,0,0,0,0,0,0,0,0,0,0,0,0,0,0,0,0,0,0,0,0,0,0,0,0,0],"sum_hessian":[1.13992125E5,5.142697E4,6.2565156E4,7.0174615E2,5.0725223E4,5.4079953E4,8.485203E3,5.312471E2,1.7049907E2,4.588725E4,4.8379736E3,1.6879907E3,5.239196E4,3.286482E3,5.1987217E3,1.4724919E2,2.3249872E1,4.587125E4,1.5999912E1,4.559225E3,2.7874847E2,1.1259939E3,5.6199695E2,5.160022E4,7.9174567E2,2.7544849E3,5.319971E2,2.2347378E3,2.9639836E3,2.2499876E0,1.449992E2,5.2499714E0,4.5866E4,3.856729E3,7.0249615E2,1.6224911E2,9.6374475E2,6.5467144E3,4.5053504E4,4.8524734E2,3.0649832E2,2.004989E3,7.494959E2,3.7874792E2,1.5324916E2,1.656991E3,5.777468E2,7.122461E2,2.2517375E3,4.5864E4,1.999989E0,8.099956E1,3.7757292E3,3.994978E2,3.0299835E2,6.399965E1,8.9974506E2,3.9807283E3,2.5659858E3,4.1303773E4,3.7497295E3,3.64998E1,4.4874756E2,1.9709893E3,3.3999813E1,2.8199844E2,4.6749744E2,8.249955E0,1.449992E2,1.7924902E2,1.477742E3,3.66748E2,3.454981E2],"tree_param":{"num_deleted":"0","num_feature":"30","num_nodes":"73","size_leaf_vector":"1"}},{"base_weights":[2.536618E-5,1.6949843E0,-1.3906623E0,-1.0699257E0,1.7332739E0,-1.5862397E0,-1.4454883E-1,-1.819045E-1,1.2622393E0,1.7489347E0,-1.8747266E-1,5.1451568E-2,-1.6389532E0,9.037755E-1,-8.064638E-1,1.7476876E0,-1.7529565E-1,1.7617811E0,-1.8942389E-1,9.855593E-1,-1.8192169E-1,-1.6667598E0,1.7487554E-1,1.2384692E0,-8.3005875E-1,2.3801605E-1,-1.3601934E0,-1.2959386E-1,1.8038286E-1,1.8112267E0,1.2543414E0,-1.8119286E-1,1.4577625E0,-1.3238469E0,-1.7706454E0,1.4335653E0,-1.8167445E-1,1.5938514E0,2.8720507E-1,-1.8177809E-1,1.608443E0,1.2425255E0,-1.1740339E0,-4.3067276E-2,-1.8310745E-1,-1.5109667E-1,1.8115872E-1,1.3569698E-1,-1.8101133E-1,-1.7964017E-1,1.690945E-1,-1.6072391E-1,-2.3022776E-2,-1.8114577E-1,-1.0720003E-1,1.6910677E-1,-1.8829702E-1,1.6528113E-1,-1.774258E-1,-1.8460229E-1,1.5461142E-1,-1.6399173E-1,1.8038286E-1,1.6375051E-1,-1.828091E-1,1.6933061E-1,-1.912522E-1,-1.8222156E-1,1.35217E-1],"categories":[],"categories_nodes":[],"categories_segments":[],"categories_sizes":[],"default_left":[0,0,0,0,0,0,0,0,0,0,0,0,0,0,0,0,0,0,0,0,0,0,0,0,0,0,0,0,0,0,0,0,0,0,0,0,0,0,0,0,0,0,0,0,0,0,0,0,0,0,0,0,0,0,0,0,0,0,0,0,0,0,0,0,0,0,0,0,0],"id":1,"left_children":[1,3,5,7,9,11,13,-1,15,17,-1,19,21,23,25,27,-1,29,-1,31,-1,33,35,37,39,41,43,-1,-1,45,47,-1,49,51,53,55,-1,57,59,-1,61,63,65,67,-1,-1,-1,-1,-1,-1,-1,-1,-1,-1,-1,-1,-1,-1,-1,-1,-1,-1,-1,-1,-1,-1,-1,-1,-1],"loss_changes":[2.6626356E5,5.3916094E3,1.5121875E4,1.2182849E3,2.8406719E3,4.6300156E3,5.842401E3,0E0,2.5161115E2,2.3433594E3,0E0,2.9259255E3,2.6209531E3,1.8920759E3,2.9851592E3,2.741455E1,0E0,1.2478281E3,0E0,1.4778427E3,0E0,1.8206719E3,1.971547E3,9.230796E2,1.2743298E3,2.5389082E3,2.0918481E3,0E0,0E0,5.709375E1,1.3947715E3,0E0,7.2848E2,3.688537E3,1.117875E3,4.1467438E2,0E0,3.9783838E2,2.0015151E3,0E0,9.987811E1,1.2713699E3,1.5789357E3,2.2100144E3,0E0,0E0,0E0,0E0,0E0,0E0,0E0,0E0,0E0,0E0,0E0,0E0,0E0,0E0,0E0,0E0,0E0,0E0,0E0,0E0,0E0,0E0,0E0,0E0,0E0],"parents":[2147483647,0,0,1,1,2,2,3,3,4,4,5,5,6,6,8,8,9,9,11,11,12,12,13,13,14,14,15,15,17,17,19,19,21,21,22,22,23,23,24,24,25,25,26,26,29,29,30,30,32,32,33,33,34,34,35,35,37,37,38,38,40,40,41,41,42,42,43,43],"right_children":[2,4,6,8,10,12,14,-1,16,18,-1,20,22,24,26,28,-1,30,-1,32,-1,34,36,38,40,42,44,-1,-1,46,48,-1,50,52,54,56,-1,58,60,-1,62,64,66,68,-1,-1,-1,-1,-1,-1,-1,-1,-1,-1,-1,-1,-1,-1,-1,-1,-1,-1,-1,-1,-1,-1,-1,-1,-1],"split_conditions":[-1.7859976E0,-4.8604634E-1,1.620582E0,1.5157312E0,1.9941158E0,-9.853448E-1,-2.201951E-1,-1.819045E-1,-1.0690001E0,5.767415E-1,-1.8747266E-1,-7.4986964E-2,2.4990346E0,3.6880842E-1,-9.190497E-2,8.8412404E-1,-1.7529565E-1,-1.4160796E0,-1.8942389E-1,3.127109E-2,-1.8192169E-1,-4.6571037E-1,-5.366979E-1,-5.725717E-1,2.1755762E0,-1.3017312E-1,-6.861937E-1,-1.2959386E-1,1.8038286E-1,-7.0277715E-1,4.7627756E-1,-1.8119286E-1,-2.1592973E-1,7.413282E-1,1.278442E0,-5.171353E-1,-1.8167445E-1,1.2034454E0,9.2428106E-1,-1.8177809E-1,1.3146542E0,-2.761215E-1,-1.8650155E0,-7.6125324E-1,-1.8310745E-1,-1.5109667E-1,1.8115872E-1,1.3569698E-1,-1.8101133E-1,-1.7964017E-1,1.690945E-1,-1.6072391E-1,-2.3022776E-2,-1.8114577E-1,-1.0720003E-1,1.6910677E-1,-1.8829702E-1,1.6528113E-1,-1.774258E-1,-1.8460229E-1,1.5461142E-1,-1.6399173E-1,1.8038286E-1,1.6375051E-1,-1.828091E-1,1.6933061E-1,-1.912522E-1,-1.8222156E-1,1.35217E-1],"split_indices":[13,3,3,29,0,19,7,0,6,9,0,11,6,12,5,10,0,11,0,27,0,13,25,11,16,9,17,0,0,10,25,0,3,3,6,12,0,2,11,0,6,11,24,17,0,0,0,0,0,0,0,0,0,0,0,0,0,0,0,0,0,0,0,0,0,0,0,0,0],"split_type":[0,0,0,0,0,0,0,0,0,0,0,0,0,0,0,0,0,0,0,0,0,0,0,0,0,0,0,0,0,0,0,0,0,0,0,0,0,0,0,0,0,0,0,0,0,0,0,0,0,0,0,0,0,0,0,0,0,0,0,0,0,0,0,0,0,0,0,0,0],"sum_hessian":[1.12957555E5,5.0909387E4,6.2048168E4,6.950162E2,5.021437E4,5.363058E4,8.417589E3,5.2621094E2,1.6880522E2,4.9997863E4,2.1650551E2,1.6724136E3,5.1958168E4,3.257723E3,5.1598657E3,1.457584E2,2.3046814E1,4.98227E4,1.7516545E2,1.1157455E3,5.566681E2,5.1173734E4,7.844307E2,2.7308535E3,5.2686926E2,1.7879299E3,3.3719358E3,2.2399154E0,1.435185E2,4.539662E4,4.4260786E3,1.6072432E2,9.5502124E2,1.1901651E4,3.9272086E4,4.8082986E2,3.0360086E2,1.9876229E3,7.432306E2,3.75163E2,1.5170628E2,1.0447977E3,7.4313214E2,8.883044E2,2.4836316E3,4.4699845E0,4.5392152E4,4.283192E3,1.4288646E2,6.3409542E1,8.916117E2,9.451891E3,2.4497603E3,3.7103066E4,2.1690173E3,4.4664185E2,3.4188038E1,1.9539281E3,3.369482E1,2.7565887E2,4.675717E2,8.187792E0,1.435185E2,9.26134E2,1.186638E2,1.5193166E2,5.9120044E2,3.9030176E2,4.980026E2],"tree_param":{"num_deleted":"0","num_feature":"30","num_nodes":"69","size_leaf_vector":"1"}},{"base_weights":[6.763582E-5,1.5666873E0,-1.281351E0,1.6722113E0,6.971258E-1,-1.461668E0,-1.3332611E-1,-1.635719E-1,1.6746849E0,-6.1520733E-2,1.5489058E0,4.7177326E-2,-1.5101364E0,8.324666E-1,-7.42535E-1,1.6758604E0,-1.5857749E-1,5.188442E-1,-1.8721719E0,1.6225718E0,-2.0201257E-1,9.0899545E-1,-1.6825767E-1,-1.5357274E0,1.6094325E-1,1.140069E0,-7.6785445E-1,2.1795215E-1,-1.2549522E0,-1.4440565E-1,1.6762543E0,1.1129342E0,-1.7409983E-1,-1.6799375E-1,-1.9786948E0,-1.8918912E-1,1.6629367E0,-1.6760777E-1,1.3443407E0,-1.0600153E0,-1.60579E0,1.320138E0,-1.6803713E-1,1.2386465E0,-1.914122E-1,-1.6812958E-1,1.4874386E0,1.1377728E0,-1.0766352E0,-4.0010903E-2,-1.6921553E-1,-1.6260657E-1,1.676435E-1,-1.7624918E-1,1.3741493E-1,-2.0136312E-1,-1.6511679E-1,1.6899581E-1,-1.9759154E-1,-1.6622387E-1,1.5593807E-1,-1.3535333E-2,-1.4995234E-1,-1.6491507E-1,-1.135183E-1,-1.7350797E-1,1.5739895E-1,1.5005009E-1,4.7510788E-2,-1.5231703E-1,1.669708E-1,-1.8007831E-1,1.4957199E-1,1.550692E-1,-1.7549162E-1,-1.6848116E-1,1.2342705E-1],"categories":[],"categories_nodes":[],"categories_segments":[],"categories_sizes":[],"default_left":[0,0,0,0,0,0,0,0,0,0,0,0,0,0,0,0,0,0,0,0,0,0,0,0,0,0,0,0,0,0,0,0,0,0,0,0,0,0,0,0,0,0,0,0,0,0,0,0,0,0,0,0,0,0,0,0,0,0,0,0,0,0,0,0,0,0,0,0,0,0,0,0,0,0,0,0,0],"id":2,"left_children":[1,3,5,7,9,11,13,-1,15,17,19,21,23,25,27,29,-1,31,33,35,-1,37,-1,39,41,43,45,47,49,-1,51,53,-1,-1,55,-1,57,-1,59,61,63,65,-1,67,-1,-1,69,71,73,75,-1,-1,-1,-1,-1,-1,-1,-1,-1,-1,-1,-1,-1,-1,-1,-1,-1,-1,-1,-1,-1,-1,-1,-1,-1,-1,-1],"loss_changes":[2.2145766E5,4.5532656E3,1.256132E4,3.6490625E2,3.4722195E3,3.8353438E3,4.8477964E3,0E0,1.721875E2,2.9884014E3,6.687827E2,2.4361672E3,2.1731953E3,1.569739E3,2.4868533E3,5.6742188E1,0E0,2.8932998E3,1.0810547E1,3.550464E2,0E0,1.2297507E3,0E0,1.6662891E3,1.6399761E3,8.073301E2,1.0622559E3,2.095247E3,1.7500298E3,0E0,2.9125E1,1.2837559E3,0E0,0E0,1.6932373E0,0E0,2.4453223E2,0E0,6.064989E2,2.611871E3,8.882031E2,3.6835657E2,0E0,5.172478E2,0E0,0E0,8.420825E1,1.0845721E3,1.3053523E3,1.8316426E3,0E0,0E0,0E0,0E0,0E0,0E0,0E0,0E0,0E0,0E0,0E0,0E0,0E0,0E0,0E0,0E0,0E0,0E0,0E0,0E0,0E0,0E0,0E0,0E0,0E0,0E0,0E0],"parents":[2147483647,0,0,1,1,2,2,3,3,4,4,5,5,6,6,8,8,9,9,10,10,11,11,12,12,13,13,14,14,15,15,17,17,18,18,19,19,21,21,23,23,24,24,25,25,26,26,27,27,28,28,30,30,31,31,34,34,36,36,38,38,39,39,40,40,41,41,43,43,46,46,47,47,48,48,49,49],"right_children":[2,4,6,8,10,12,14,-1,16,18,20,22,24,26,28,30,-1,32,34,36,-1,38,-1,40,42,44,46,48,50,-1,52,54,-1,-1,56,-1,58,-1,60,62,64,66,-1,68,-1,-1,70,72,74,76,-1,-1,-1,-1,-1,-1,-1,-1,-1,-1,-1,-1,-1,-1,-1,-1,-1,-1,-1,-1,-1,-1,-1,-1,-1,-1,-1],"split_conditions":[-1.7859976E0,-1.4160796E0,1.620582E0,-4.9830067E-1,1.8959074E0,-9.853448E-1,-2.201951E-1,-1.635719E-1,5.767415E-1,2.2414032E-2,2.0826507E-1,-7.4986964E-2,2.4990346E0,3.6880842E-1,-9.190497E-2,-7.0277715E-1,-1.5857749E-1,-1.1814422E-1,-4.8604634E-1,5.4089034E-1,-2.0201257E-1,3.127109E-2,-1.6825767E-1,-8.069166E-1,-5.366979E-1,1.0414847E0,2.1755762E0,-1.3017312E-1,-6.861937E-1,-1.4440565E-1,-1.8752683E0,-3.2300657E-1,-1.7409983E-1,-1.6799375E-1,4.7627756E-1,-1.8918912E-1,2.0129874E0,-1.6760777E-1,-2.1592973E-1,-5.6053513E-1,1.0663408E0,2.8455114E-1,-1.6803713E-1,-5.725717E-1,-1.914122E-1,-1.6812958E-1,1.3146542E0,1.3868655E-1,-1.8650155E0,-7.6125324E-1,-1.6921553E-1,-1.6260657E-1,1.676435E-1,-1.7624918E-1,1.3741493E-1,-2.0136312E-1,-1.6511679E-1,1.6899581E-1,-1.9759154E-1,-1.6622387E-1,1.5593807E-1,-1.3535333E-2,-1.4995234E-1,-1.6491507E-1,-1.135183E-1,-1.7350797E-1,1.5739895E-1,1.5005009E-1,4.7510788E-2,-1.5231703E-1,1.669708E-1,-1.8007831E-1,1.4957199E-1,1.550692E-1,-1.7549162E-1,-1.6848116E-1,1.2342705E-1],"split_indices":[13,11,3,3,3,19,7,0,9,26,22,11,6,12,5,10,0,25,3,17,0,27,0,13,25,13,16,9,17,0,29,26,0,0,25,0,1,0,3,12,6,14,0,11,0,0,6,10,24,17,0,0,0,0,0,0,0,0,0,0,0,0,0,0,0,0,0,0,0,0,0,0,0,0,0,0,0],"split_type":[0,0,0,0,0,0,0,0,0,0,0,0,0,0,0,0,0,0,0,0,0,0,0,0,0,0,0,0,0,0,0,0,0,0,0,0,0,0,0,0,0,0,0,0,0,0,0,0,0,0,0,0,0,0,0,0,0,0,0,0,0,0,0,0,0,0,0,0,0,0,0,0,0,0,0,0,0],"sum_hessian":[1.1031339E5,4.963323E4,6.0680156E4,4.4261086E4,5.372142E3,5.2442836E4,8.237323E3,3.257868E1,4.4228508E4,2.8419016E3,2.5302405E3,1.6321814E3,5.0810652E4,3.186046E3,5.0512773E3,4.4213055E4,1.5454963E1,2.1526348E3,6.892669E2,2.479606E3,5.0634518E1,1.0897219E3,5.424595E2,5.004435E4,7.663001E2,2.672621E3,5.1342474E2,1.7575178E3,3.2937595E3,5.117671E0,4.4207938E4,1.7049325E3,4.4770224E2,2.5174017E2,4.3752673E2,2.7634945E1,2.4519712E3,1.5665529E2,9.3306665E2,6.426406E3,4.3617945E4,4.7042706E2,2.9587305E2,2.5896323E3,8.298889E1,3.6560254E2,1.4782224E2,1.027551E3,7.299668E2,8.719087E2,2.4218508E3,1.9276845E0,4.4206008E4,1.4150581E2,1.5634266E3,3.907035E2,4.6823227E1,2.4344292E3,1.7542006E1,6.1832104E1,8.7123456E2,2.0708794E3,4.3555264E3,3.9935848E4,3.6821E3,3.5640663E1,4.3478638E2,1.9275997E3,6.620325E2,8.018652E0,1.3980359E2,1.11137764E2,9.164132E2,1.4951868E2,5.804481E2,3.80478E2,4.9143066E2],"tree_param":{"num_deleted":"0","num_feature":"30","num_nodes":"77","size_leaf_vector":"1"}},{"base_weights":[1.4160268E-4,1.4666834E0,-1.1933779E0,1.5672683E0,6.4628863E-1,-1.3839976E0,-2.375009E-1,-1.533584E-1,1.5695921E0,-5.7191893E-2,1.4412591E0,-1.4347135E0,-3.2426402E-1,6.3657546E-1,-9.430139E-1,1.5706993E0,-1.4877169E-1,4.796278E-1,-1.7252495E0,1.5105813E0,-1.8365602E-1,-1.4607267E0,5.9722483E-1,1.4525318E0,-1.3071861E0,1.1619296E0,-4.221025E-1,-1.4849651E0,-9.163349E-3,-1.3560914E-1,1.5710737E0,1.027333E0,-1.6240968E-1,-1.5739428E-1,-1.8063506E0,1.5497165E0,-1.6973768E-1,-1.0386715E0,-1.5316699E0,-1.6041611E-1,1.3325164E0,1.7097487E0,-1.594093E-1,1.2422252E0,-1.609374E-1,1.3883609E0,-1.6219641E-1,8.6387575E-1,-1.1806151E0,-1.6179918E-1,-4.6034133E-1,-1.6272524E-1,5.894321E-1,-1.4931872E-1,1.571251E-1,-5.290956E-2,1.4711528E-1,-1.9013016E-1,-1.7206664E-1,-2.1038695E-1,1.5766585E-1,-9.906945E-3,-1.468282E-1,-1.14629626E-1,-1.5848003E-1,1.5499496E-1,-1.5653622E-1,-1.5451427E-1,1.8322332E-1,-1.5002568E-1,1.5853336E-1,-1.6468148E-1,1.4712833E-1,1.4463854E-1,-1.6302767E-1,1.3234788E-1,-1.6876177E-1,1.3148685E-1,-1.625217E-1,-1.6216026E-1,9.343832E-2],"categories":[],"categories_nodes":[],"categories_segments":[],"categories_sizes":[],"default_left":[0,0,0,0,0,0,0,0,0,0,0,0,0,0,0,0,0,0,0,0,0,0,0,0,0,0,0,0,0,0,0,0,0,0,0,0,0,0,0,0,0,0,0,0,0,0,0,0,0,0,0,0,0,0,0,0,0,0,0,0,0,0,0,0,0,0,0,0,0,0,0,0,0,0,0,0,0,0,0,0,0],"id":3,"left_children":[1,3,5,7,9,11,13,-1,15,17,19,21,23,25,27,29,-1,31,33,35,-1,37,39,41,43,45,47,49,51,-1,53,55,-1,-1,57,59,-1,61,63,-1,65,67,-1,69,-1,71,-1,73,75,-1,77,-1,79,-1,-1,-1,-1,-1,-1,-1,-1,-1,-1,-1,-1,-1,-1,-1,-1,-1,-1,-1,-1,-1,-1,-1,-1,-1,-1,-1,-1],"loss_changes":[1.8651131E5,3.9442344E3,1.0703859E4,3.093047E2,2.9211816E3,2.6319297E3,6.0246274E3,0E0,1.4638281E2,2.4830564E3,5.5998096E2,2.471539E3,3.9108892E3,2.4274849E3,2.7359336E3,4.8742188E1,0E0,2.4189473E3,5.4415283E0,3.0418457E2,0E0,1.3802734E3,9.596504E2,6.2781006E2,1.1125955E3,1.8408271E3,1.413419E3,4.655083E2,1.9247516E3,0E0,2.546875E1,1.1510369E3,0E0,0E0,2.4926758E-1,2.3695703E2,0E0,2.6819297E3,8.071172E2,0E0,2.8217596E2,2.962732E2,0E0,1.4665784E2,0E0,6.814292E2,0E0,7.8368225E2,1.1590692E3,0E0,8.178747E2,0E0,1.1078683E3,0E0,0E0,0E0,0E0,0E0,0E0,0E0,0E0,0E0,0E0,0E0,0E0,0E0,0E0,0E0,0E0,0E0,0E0,0E0,0E0,0E0,0E0,0E0,0E0,0E0,0E0,0E0,0E0],"parents":[2147483647,0,0,1,1,2,2,3,3,4,4,5,5,6,6,8,8,9,9,10,10,11,11,12,12,13,13,14,14,15,15,17,17,18,18,19,19,21,21,22,22,23,23,24,24,25,25,26,26,27,27,28,28,30,30,31,31,34,34,35,35,37,37,38,38,40,40,41,41,43,43,45,45,47,47,48,48,50,50,52,52],"right_children":[2,4,6,8,10,12,14,-1,16,18,20,22,24,26,28,30,-1,32,34,36,-1,38,40,42,44,46,48,50,52,-1,54,56,-1,-1,58,60,-1,62,64,-1,66,68,-1,70,-1,72,-1,74,76,-1,78,-1,80,-1,-1,-1,-1,-1,-1,-1,-1,-1,-1,-1,-1,-1,-1,-1,-1,-1,-1,-1,-1,-1,-1,-1,-1,-1,-1,-1,-1],"split_conditions":[-1.7859976E0,-1.4160796E0,1.3935225E0,-4.9830067E-1,1.8959074E0,6.777285E-1,-5.575814E-1,-1.533584E-1,5.767415E-1,2.2414032E-2,2.0826507E-1,3.0202103E0,-1.3385137E0,2.7736297E-1,9.419254E-2,-7.0277715E-1,-1.4877169E-1,-1.1814422E-1,-4.8604634E-1,5.472968E-1,-1.8365602E-1,-7.287119E-1,6.8208414E-1,-7.0460014E-2,-1.8650155E0,1.2776982E0,-7.4005884E-1,1.2368379E0,1.3566162E-1,-1.3560914E-1,-1.8752683E0,-2.005085E-2,-1.6240968E-1,-1.5739428E-1,5.2214855E-1,-6.626826E-2,-1.6973768E-1,-4.254906E-1,-3.4807187E-1,-1.6041611E-1,7.42854E-1,-2.1592973E-1,-1.594093E-1,2.2591517E0,-1.609374E-1,-1.5378519E0,-1.6219641E-1,-4.7261924E-2,-2.450811E0,-1.6179918E-1,1.2608807E0,-1.6272524E-1,-1.1522684E-1,-1.4931872E-1,1.571251E-1,-5.290956E-2,1.4711528E-1,-1.9013016E-1,-1.7206664E-1,-2.1038695E-1,1.5766585E-1,-9.906945E-3,-1.468282E-1,-1.14629626E-1,-1.5848003E-1,1.5499496E-1,-1.5653622E-1,-1.5451427E-1,1.8322332E-1,-1.5002568E-1,1.5853336E-1,-1.6468148E-1,1.4712833E-1,1.4463854E-1,-1.6302767E-1,1.3234788E-1,-1.6876177E-1,1.3148685E-1,-1.625217E-1,-1.6216026E-1,9.343832E-2],"split_indices":[13,11,3,3,3,20,11,0,9,26,22,6,12,13,27,10,0,25,3,9,0,18,18,24,24,2,6,11,23,0,29,26,0,0,14,10,0,13,28,0,5,3,0,13,0,10,0,17,18,0,11,0,22,0,0,0,0,0,0,0,0,0,0,0,0,0,0,0,0,0,0,0,0,0,0,0,0,0,0,0,0],"split_type":[0,0,0,0,0,0,0,0,0,0,0,0,0,0,0,0,0,0,0,0,0,0,0,0,0,0,0,0,0,0,0,0,0,0,0,0,0,0,0,0,0,0,0,0,0,0,0,0,0,0,0,0,0,0,0,0,0,0,0,0,0,0,0,0,0,0,0,0,0,0,0,0,0,0,0,0,0,0,0,0,0],"sum_hessian":[1.0655481E5,4.780904E4,5.8745777E4,4.258676E4,5.2222783E3,4.897817E4,9.7676045E3,3.1399786E1,4.2555363E4,2.7710583E3,2.45122E3,4.6740926E4,2.2372466E3,4.3626787E3,5.404926E3,4.2540445E4,1.491928E1,2.09693E3,6.741283E2,2.400981E3,5.0238834E1,4.615038E4,5.905464E2,7.9666455E2,1.440582E3,2.915704E3,1.4469749E3,3.419729E3,1.985197E3,4.976635E0,4.253547E4,1.6641736E3,4.3275635E2,2.423653E2,4.31763E2,2.3725542E3,2.8426794E1,6.643346E3,3.950703E4,1.4756639E2,4.4298E2,7.350458E2,6.1618786E1,1.5233076E2,1.2882512E3,2.6968535E3,2.1885043E2,5.367807E2,9.1019415E2,3.0262522E3,3.9347662E2,5.3562036E2,1.4495767E3,1.9754753E0,4.2533492E4,3.6920813E2,1.2949655E3,1.9475514E2,2.3700787E2,1.6803143E1,2.3557512E3,2.0848333E3,4.5585127E3,4.7895156E3,3.4717516E4,4.124949E2,3.0485115E1,2.623606E1,7.088097E2,1.6563711E1,1.3576706E2,7.121828E1,2.6256353E3,4.3549167E2,1.0128905E2,1.5298557E2,7.5720856E2,1.5584628E2,2.3763034E2,1.9513269E2,1.254444E3],"tree_param":{"num_deleted":"0","num_feature":"30","num_nodes":"81","size_leaf_vector":"1"}},{"base_weights":[1.8247325E-4,1.3866448E0,-1.1208446E0,1.4835804E0,6.0474825E-1,-1.3010048E0,-2.2254682E-1,-1.4512303E-1,1.4857861E0,-5.33969E-2,1.3551664E0,-1.348907E0,-3.044504E-1,5.937652E-1,-8.826024E-1,1.4868398E0,-1.4076595E-1,4.465111E-1,-1.6118233E0,1.4209297E0,-1.6971803E-1,-1.3733116E0,5.627194E-1,1.3372524E0,-1.2340481E0,1.0824456E0,-3.955566E-1,-1.399861E0,-9.502606E-3,-1.2820248E-1,1.4871995E0,9.5357513E-1,-1.5316314E-1,-1.4894651E-1,-1.6755056E-1,-1.6728209E-1,1.4576439E0,-9.288045E-1,-1.4410038E0,-1.5149021E-1,1.2557105E0,1.5727701E0,-1.5159896E-1,1.1726749E0,-1.5192826E-1,1.2924213E0,-1.5289514E-1,8.2347834E-1,-1.1059333E0,-1.5268072E-1,-4.309456E-1,-1.534213E-1,5.388152E-1,1.4873874E-1,-1.6191706E-1,-1.6967534E-1,1.1857295E-1,1.4828616E-1,-1.7510901E-1,-1.1610966E-1,9.108705E-2,-9.798857E-2,-1.4781158E-1,1.460948E-1,-1.4788695E-1,1.6828081E-1,-1.4935939E-1,-1.4190799E-1,1.4979352E-1,1.3695522E-1,-1.6429216E-1,-1.586478E-1,1.256548E-1,8.5369565E-2,-1.5925452E-1,1.2140828E-1,-1.5320341E-1,-1.5286076E-1,8.511749E-2],"categories":[],"categories_nodes":[],"categories_segments":[],"categories_sizes":[],"default_left":[0,0,0,0,0,0,0,0,0,0,0,0,0,0,0,0,0,0,0,0,0,0,0,0,0,0,0,0,0,0,0,0,0,0,0,0,0,0,0,0,0,0,0,0,0,0,0,0,0,0,0,0,0,0,0,0,0,0,0,0,0,0,0,0,0,0,0,0,0,0,0,0,0,0,0,0,0,0,0],"id":4,"left_children":[1,3,5,7,9,11,13,-1,15,17,19,21,23,25,27,29,-1,31,33,35,-1,37,39,41,43,45,47,49,51,-1,53,55,-1,-1,-1,-1,57,59,61,-1,63,65,-1,67,-1,69,-1,71,73,-1,75,-1,77,-1,-1,-1,-1,-1,-1,-1,-1,-1,-1,-1,-1,-1,-1,-1,-1,-1,-1,-1,-1,-1,-1,-1,-1,-1,-1],"loss_changes":[1.586214E5,3.4572812E3,9.132109E3,2.649297E2,2.48642E3,2.2433594E3,5.080413E3,0E0,1.2577344E2,2.0909587E3,4.7458984E2,2.0929844E3,3.2934785E3,2.0385383E3,2.3544087E3,4.2296875E1,0E0,2.0398057E3,2.5836182E0,2.6404736E2,0E0,1.3310859E3,8.168468E2,5.2673193E2,9.475427E2,1.5494048E3,1.2085801E3,4.020171E2,1.6231552E3,0E0,2.60625E1,9.976338E2,0E0,0E0,0E0,0E0,1.8682373E2,2.5031719E3,6.5615625E2,0E0,2.4068402E2,2.4588684E2,0E0,1.2566011E2,0E0,5.937544E2,0E0,5.384794E2,8.419823E2,0E0,6.9130725E2,0E0,9.2347034E2,0E0,0E0,0E0,0E0,0E0,0E0,0E0,0E0,0E0,0E0,0E0,0E0,0E0,0E0,0E0,0E0,0E0,0E0,0E0,0E0,0E0,0E0,0E0,0E0,0E0,0E0],"parents":[2147483647,0,0,1,1,2,2,3,3,4,4,5,5,6,6,8,8,9,9,10,10,11,11,12,12,13,13,14,14,15,15,17,17,18,18,19,19,21,21,22,22,23,23,24,24,25,25,26,26,27,27,28,28,30,30,31,31,36,36,37,37,38,38,40,40,41,41,43,43,45,45,47,47,48,48,50,50,52,52],"right_children":[2,4,6,8,10,12,14,-1,16,18,20,22,24,26,28,30,-1,32,34,36,-1,38,40,42,44,46,48,50,52,-1,54,56,-1,-1,-1,-1,58,60,62,-1,64,66,-1,68,-1,70,-1,72,74,-1,76,-1,78,-1,-1,-1,-1,-1,-1,-1,-1,-1,-1,-1,-1,-1,-1,-1,-1,-1,-1,-1,-1,-1,-1,-1,-1,-1,-1],"split_conditions":[-1.7859976E0,-1.4160796E0,1.3935225E0,-4.9830067E-1,1.8959074E0,6.777285E-1,-5.575814E-1,-1.4512303E-1,5.767415E-1,2.2414032E-2,2.0826507E-1,3.0202103E0,-1.3385137E0,2.7736297E-1,9.419254E-2,-7.0277715E-1,-1.4076595E-1,-1.1814422E-1,-4.8604634E-1,5.4089034E-1,-1.6971803E-1,-8.069166E-1,6.8208414E-1,-9.973215E-2,-1.8650155E0,1.2776982E0,-3.3727702E-1,1.2368379E0,1.3566162E-1,-1.2820248E-1,2.1790798E0,-1.8385863E-1,-1.5316314E-1,-1.4894651E-1,-1.6755056E-1,-1.6728209E-1,2.0129874E0,1.4751992E0,-1.0702741E0,-1.5149021E-1,7.42854E-1,-7.0460014E-2,-1.5159896E-1,2.2591517E0,-1.5192826E-1,1.1948481E0,-1.5289514E-1,1.1028273E0,-1.0037454E0,-1.5268072E-1,1.2608807E0,-1.534213E-1,-1.1522684E-1,1.4873874E-1,-1.6191706E-1,-1.6967534E-1,1.1857295E-1,1.4828616E-1,-1.7510901E-1,-1.1610966E-1,9.108705E-2,-9.798857E-2,-1.4781158E-1,1.460948E-1,-1.4788695E-1,1.6828081E-1,-1.4935939E-1,-1.4190799E-1,1.4979352E-1,1.3695522E-1,-1.6429216E-1,-1.586478E-1,1.256548E-1,8.5369565E-2,-1.5925452E-1,1.2140828E-1,-1.5320341E-1,-1.5286076E-1,8.511749E-2],"split_indices":[13,11,3,3,3,20,11,0,9,26,22,6,12,13,27,10,0,25,3,17,0,13,18,15,24,2,28,11,23,0,6,27,0,0,0,0,1,10,18,0,5,24,0,13,0,0,0,1,23,0,11,0,22,0,0,0,0,0,0,0,0,0,0,0,0,0,0,0,0,0,0,0,0,0,0,0,0,0,0],"split_type":[0,0,0,0,0,0,0,0,0,0,0,0,0,0,0,0,0,0,0,0,0,0,0,0,0,0,0,0,0,0,0,0,0,0,0,0,0,0,0,0,0,0,0,0,0,0,0,0,0,0,0,0,0,0,0,0,0,0,0,0,0,0,0,0,0,0,0,0,0,0,0,0,0,0,0,0,0,0,0],"sum_hessian":[1.0205377E5,4.562523E4,5.6428547E4,4.0591957E4,5.033274E3,4.7001594E4,9.426955E3,2.9992273E1,4.0561965E4,2.6819934E3,2.3512805E3,4.4845605E4,2.1559873E3,4.2146553E3,5.2123E3,4.0547684E4,1.428057E1,2.0311575E3,6.5083594E2,2.3022136E3,4.9067005E1,4.4280582E4,5.650229E2,7.7929175E2,1.3766956E3,2.8210764E3,1.393579E3,3.2727756E3,1.9395244E3,4.8043065E0,4.054288E4,1.6171466E3,4.1401083E2,2.3113179E2,4.1970413E2,2.6477766E1,2.2757358E3,5.854065E3,3.8426516E4,1.4102797E2,4.239949E2,7.202854E2,5.9006393E1,1.4554228E2,1.2311533E3,2.6115903E3,2.094861E2,5.1303357E2,8.8054535E2,2.8931436E3,3.7963205E2,5.125304E2,1.426994E3,4.054095E4,1.9305966E0,1.2973643E2,1.4874102E3,2.2585237E3,1.7212101E1,5.1980825E3,6.5598236E2,2.8643396E3,3.5562176E4,3.9482776E2,2.9167124E1,6.957686E2,2.4516777E1,1.58536415E1,1.2968864E2,2.5452434E3,6.634688E1,7.7743164E1,4.352904E2,1.7501004E2,7.0553534E2,1.5217686E2,2.2745517E2,1.8678981E2,1.2402042E3],"tree_param":{"num_deleted":"0","num_feature":"30","num_nodes":"79","size_leaf_vector":"1"}},{"base_weights":[2.204174E-4,1.321284E0,-1.0598665E0,1.4155113E0,5.698866E-1,-1.3213546E0,-4.930116E-1,-1.3834868E-1,1.417622E0,-5.073154E-2,1.2848687E0,-1.3754445E0,-6.2457967E-1,4.0231746E-1,-9.23584E-1,1.4186333E0,-1.3409925E-1,4.1738474E-1,-1.5219967E0,1.3476762E0,-1.5878585E-1,-1.3917228E0,1.2879837E-1,4.4663918E-1,-1.4570545E-1,9.3282163E-1,-5.418975E-1,3.7435062E-2,-1.1406541E0,-1.21856526E-1,1.4189821E0,8.8877565E-1,-1.4568976E-1,-1.4207907E-1,-1.5732573E-1,-1.789203E-1,1.3816977E0,-8.845571E-1,-1.4328717E0,-1.4442538E-1,2.9065907E0,-7.6602626E-1,1.4021751E0,1.1529806E0,-1.4627255E-1,7.773701E-1,-1.1975375E0,-1.4629792E-1,4.9056113E-1,-1.2574948E0,7.6650643E-1,-1.4927386E-1,1.4191711E-1,-5.08426E-2,1.308391E-1,1.4097326E-1,-1.548246E-1,-1.4571242E-1,3.045817E-3,-1.4494336E-1,-1.1261709E-1,-1.2433554E-1,3.112147E-1,-1.4610362E-1,9.5613636E-2,1.7579727E-1,-1.4645766E-1,1.2447407E-1,-1.5458168E-1,1.2930329E-1,-1.4635545E-1,1.13048576E-1,-1.4852245E-1,8.700211E-2,-1.5975037E-1,1.270595E-1,-1.3175507E-1,-1.5123367E-1,1.4129263E-1],"categories":[],"categories_nodes":[],"categories_segments":[],"categories_sizes":[],"default_left":[0,0,0,0,0,0,0,0,0,0,0,0,0,0,0,0,0,0,0,0,0,0,0,0,0,0,0,0,0,0,0,0,0,0,0,0,0,0,0,0,0,0,0,0,0,0,0,0,0,0,0,0,0,0,0,0,0,0,0,0,0,0,0,0,0,0,0,0,0,0,0,0,0,0,0,0,0,0,0],"id":5,"left_children":[1,3,5,7,9,11,13,-1,15,17,19,21,23,25,27,29,-1,31,33,35,-1,37,39,41,-1,43,45,47,49,-1,51,53,-1,-1,-1,-1,55,57,59,-1,61,63,65,67,-1,69,71,-1,73,75,77,-1,-1,-1,-1,-1,-1,-1,-1,-1,-1,-1,-1,-1,-1,-1,-1,-1,-1,-1,-1,-1,-1,-1,-1,-1,-1,-1,-1],"loss_changes":[1.3595303E5,3.0592266E3,7.9826836E3,2.2883594E2,2.13777E3,1.3882109E3,6.5553555E3,0E0,1.0896094E2,1.7774966E3,4.0605347E2,8.376289E2,2.3699434E3,2.7667603E3,2.39533E3,3.7015625E1,0E0,1.7312183E3,9.9645996E-1,2.3632959E2,0E0,7.0484375E2,1.6081041E3,1.3482286E3,0E0,1.8666926E3,1.7198232E3,1.4397697E3,2.0881562E3,0E0,2.3210938E1,9.182809E2,0E0,0E0,0E0,0E0,1.8029053E2,1.3317003E3,1.5732812E2,0E0,1.17361206E2,6.154273E2,6.661644E2,8.040718E2,0E0,7.6495654E2,8.910292E2,0E0,1.2900698E3,1.3417354E3,7.9956647E2,0E0,0E0,0E0,0E0,0E0,0E0,0E0,0E0,0E0,0E0,0E0,0E0,0E0,0E0,0E0,0E0,0E0,0E0,0E0,0E0,0E0,0E0,0E0,0E0,0E0,0E0,0E0,0E0],"parents":[2147483647,0,0,1,1,2,2,3,3,4,4,5,5,6,6,8,8,9,9,10,10,11,11,12,12,13,13,14,14,15,15,17,17,18,18,19,19,21,21,22,22,23,23,25,25,26,26,27,27,28,28,30,30,31,31,36,36,37,37,38,38,40,40,41,41,42,42,43,43,45,45,46,46,48,48,49,49,50,50],"right_children":[2,4,6,8,10,12,14,-1,16,18,20,22,24,26,28,30,-1,32,34,36,-1,38,40,42,-1,44,46,48,50,-1,52,54,-1,-1,-1,-1,56,58,60,-1,62,64,66,68,-1,70,72,-1,74,76,78,-1,-1,-1,-1,-1,-1,-1,-1,-1,-1,-1,-1,-1,-1,-1,-1,-1,-1,-1,-1,-1,-1,-1,-1,-1,-1,-1,-1],"split_conditions":[-1.7859976E0,-1.4160796E0,7.413282E-1,-4.9830067E-1,1.8959074E0,8.6526734E-1,-5.575814E-1,-1.3834868E-1,5.767415E-1,2.2414032E-2,2.0826507E-1,1.2022438E0,-3.3360067E-1,3.4057415E-1,-3.4707233E-1,-7.0277715E-1,-1.3409925E-1,-1.1814422E-1,-4.8604634E-1,-6.626826E-2,-1.5878585E-1,-1.3300555E0,1.3465661E0,4.331174E-2,-1.4570545E-1,1.2776982E0,-7.4005884E-1,9.92398E-3,1.6188225E0,-1.21856526E-1,-1.8752683E0,-2.005085E-2,-1.4568976E-1,-1.4207907E-1,-1.5732573E-1,-1.789203E-1,5.472968E-1,3.48938E-1,1.3500417E0,-1.4442538E-1,1.0524671E0,-4.6149544E-2,7.24873E-2,1.2456738E0,-1.4627255E-1,-4.7261924E-2,-2.450811E0,-1.4629792E-1,4.0059403E-1,-2.150176E0,2.4474049E0,-1.4927386E-1,1.4191711E-1,-5.08426E-2,1.308391E-1,1.4097326E-1,-1.548246E-1,-1.4571242E-1,3.045817E-3,-1.4494336E-1,-1.1261709E-1,-1.2433554E-1,3.112147E-1,-1.4610362E-1,9.5613636E-2,1.7579727E-1,-1.4645766E-1,1.2447407E-1,-1.5458168E-1,1.2930329E-1,-1.4635545E-1,1.13048576E-1,-1.4852245E-1,8.700211E-2,-1.5975037E-1,1.270595E-1,-1.3175507E-1,-1.5123367E-1,1.4129263E-1],"split_indices":[13,11,3,3,3,28,11,0,9,26,22,25,25,13,28,10,0,25,3,10,0,5,11,3,0,2,6,27,16,0,29,26,0,0,0,0,9,17,15,0,18,1,5,0,0,17,18,0,15,15,3,0,0,0,0,0,0,0,0,0,0,0,0,0,0,0,0,0,0,0,0,0,0,0,0,0,0,0,0],"split_type":[0,0,0,0,0,0,0,0,0,0,0,0,0,0,0,0,0,0,0,0,0,0,0,0,0,0,0,0,0,0,0,0,0,0,0,0,0,0,0,0,0,0,0,0,0,0,0,0,0,0,0,0,0,0,0,0,0,0,0,0,0,0,0,0,0,0,0,0,0,0,0,0,0,0,0,0,0,0,0],"sum_hessian":[9.7076625E4,4.3218355E4,5.3858273E4,3.840178E4,4.8165713E3,3.6855598E4,1.7002676E4,2.844337E1,3.837334E4,2.5789353E3,2.2376362E3,3.4199734E4,2.6558645E3,5.5214595E3,1.1481217E4,3.835976E4,1.3577355E1,1.9569907E3,6.219445E2,2.1902803E3,4.735594E1,3.3833676E4,3.660592E2,1.1615975E3,1.494267E3,3.5352197E3,1.98624E3,2.1156362E3,9.36558E3,4.61106E0,3.8355152E4,1.5641302E3,3.9286038E2,2.1875735E2,4.0318716E2,2.2946655E1,2.1673335E3,2.5407756E3,3.1292898E4,2.3401663E2,1.3204257E2,5.1200854E2,6.49589E2,3.238142E3,2.9707758E2,6.593406E2,1.3268993E3,4.902075E2,1.6254288E3,8.825249E3,5.403314E2,1.975602E0,3.8353176E4,3.6120544E2,1.2029248E3,2.1473062E3,2.002746E1,1.5624724E3,9.783033E2,2.9686127E4,1.6067714E3,5.9934263E0,1.2604914E2,3.6489868E2,1.4710986E2,5.7821277E2,7.137622E1,3.1321853E3,1.059567E2,5.363445E2,1.2299612E2,1.4561583E2,1.1812834E3,1.3759614E3,2.4946745E2,2.0431534E2,8.620934E3,1.19105545E2,4.212259E2],"tree_param":{"num_deleted":"0","num_feature":"30","num_nodes":"79","size_leaf_vector":"1"}},{"base_weights":[1.4981073E-4,1.2670369E0,-1.0072992E0,1.3592618E0,5.404037E-1,-1.2614051E0,-4.64239E-1,-1.3268203E-1,1.361295E0,-4.8025697E-2,1.226225E0,-1.3287576E0,-7.321436E-1,3.7778333E-1,-8.688233E-1,1.3622723E0,-1.2845214E-1,3.9246744E-1,-1.4492005E0,1.2865287E0,-1.4999472E-1,-1.3459266E0,9.848817E-2,-1.3186319E0,6.560898E-1,8.7180674E-1,-5.158536E-1,3.2696687E-2,-1.0785683E0,-1.1633489E-1,1.3626131E0,8.323008E-1,-1.3954486E-1,-1.3640657E-1,-1.4911734E-1,-1.6895004E-1,1.3202611E0,-3.217437E-1,-1.3692318E0,-1.3796063E-1,2.3627017E0,-1.4426824E-1,-1.3701864E-1,1.6776477E0,-7.813798E-1,1.0756629E0,-1.3998549E-1,7.3506856E-1,-1.1422466E0,-1.4001812E-1,4.4299605E-1,-1.3457799E0,-2.9246008E-1,1.3628167E-1,-1.602134E-1,-1.5461388E-1,1.05789445E-1,-1.7531927E-1,1.3418095E-1,-1.4017422E-1,1.0218456E-1,-1.3859993E-1,-1.07478045E-1,-1.2295001E-1,2.546397E-1,-1.3865896E-1,1.11279644E-1,2.1303788E-1,-1.4151812E-1,-1.439963E-1,1.2028312E-1,-1.5656474E-1,1.16443455E-1,1.2203079E-1,-1.4005195E-1,1.05419695E-1,-1.4203916E-1,7.810342E-2,-1.5107514E-1,8.1671335E-2,-1.400315E-1,7.0806414E-2,-1.4346163E-1],"categories":[],"categories_nodes":[],"categories_segments":[],"categories_sizes":[],"default_left":[0,0,0,0,0,0,0,0,0,0,0,0,0,0,0,0,0,0,0,0,0,0,0,0,0,0,0,0,0,0,0,0,0,0,0,0,0,0,0,0,0,0,0,0,0,0,0,0,0,0,0,0,0,0,0,0,0,0,0,0,0,0,0,0,0,0,0,0,0,0,0,0,0,0,0,0,0,0,0,0,0,0,0],"id":6,"left_children":[1,3,5,7,9,11,13,-1,15,17,19,21,23,25,27,29,-1,31,33,35,-1,37,39,41,43,45,47,49,51,-1,53,55,-1,-1,-1,-1,57,59,61,-1,63,-1,65,67,69,71,-1,73,75,-1,77,79,81,-1,-1,-1,-1,-1,-1,-1,-1,-1,-1,-1,-1,-1,-1,-1,-1,-1,-1,-1,-1,-1,-1,-1,-1,-1,-1,-1,-1,-1,-1],"loss_changes":[1.17253875E5,2.7263516E3,7.061172E3,1.9901562E2,1.8503373E3,1.2417188E3,5.557966E3,0E0,9.50625E1,1.5242306E3,3.5000708E2,7.5791797E2,3.2069106E3,2.3382268E3,2.0837148E3,3.2625E1,0E0,1.4787559E3,7.6538086E-2,2.102356E2,0E0,7.2891406E2,1.236571E3,4.0561914E2,1.7196582E3,1.5808875E3,1.4785209E3,1.2239696E3,1.877456E3,0E0,2.3960938E1,8.111045E2,0E0,0E0,0E0,0E0,1.380752E2,9.8984033E2,1.4601953E2,0E0,9.9418945E1,0E0,4.1406876E2,9.612726E2,6.3787744E2,7.357783E2,0E0,6.5439825E2,7.6943005E2,0E0,1.0700394E3,7.879287E2,2.594094E3,0E0,0E0,0E0,0E0,0E0,0E0,0E0,0E0,0E0,0E0,0E0,0E0,0E0,0E0,0E0,0E0,0E0,0E0,0E0,0E0,0E0,0E0,0E0,0E0,0E0,0E0,0E0,0E0,0E0,0E0],"parents":[2147483647,0,0,1,1,2,2,3,3,4,4,5,5,6,6,8,8,9,9,10,10,11,11,12,12,13,13,14,14,15,15,17,17,18,18,19,19,21,21,22,22,23,23,24,24,25,25,26,26,27,27,28,28,30,30,31,31,36,36,37,37,38,38,40,40,42,42,43,43,44,44,45,45,47,47,48,48,50,50,51,51,52,52],"right_children":[2,4,6,8,10,12,14,-1,16,18,20,22,24,26,28,30,-1,32,34,36,-1,38,40,42,44,46,48,50,52,-1,54,56,-1,-1,-1,-1,58,60,62,-1,64,-1,66,68,70,72,-1,74,76,-1,78,80,82,-1,-1,-1,-1,-1,-1,-1,-1,-1,-1,-1,-1,-1,-1,-1,-1,-1,-1,-1,-1,-1,-1,-1,-1,-1,-1,-1,-1,-1,-1],"split_conditions":[-1.7859976E0,-1.4160796E0,7.413282E-1,-4.9830067E-1,1.8959074E0,1.0663408E0,-5.575814E-1,-1.3268203E-1,5.767415E-1,2.2414032E-2,2.0826507E-1,1.2022438E0,1.5378694E-1,3.4057415E-1,-3.4707233E-1,-7.0277715E-1,-1.2845214E-1,-1.1814422E-1,-4.8604634E-1,-1.2442464E-2,-1.4999472E-1,-9.853448E-1,1.3465661E0,3.0202103E0,-7.0378727E-1,1.2776982E0,-7.4005884E-1,9.92398E-3,5.5362684E-1,-1.1633489E-1,2.1790798E0,-3.2300657E-1,-1.3954486E-1,-1.3640657E-1,-1.4911734E-1,-1.6895004E-1,-6.626826E-2,-1.7444316E0,1.3500417E0,-1.3796063E-1,4.590445E-1,-1.4426824E-1,-7.6918113E-1,-5.6053513E-1,1.5944186E0,-1.5378519E0,-1.3998549E-1,-4.7261924E-2,-2.450811E0,-1.4001812E-1,4.0059403E-1,-1.4909433E0,5.5887373E-3,1.3628167E-1,-1.602134E-1,-1.5461388E-1,1.05789445E-1,-1.7531927E-1,1.3418095E-1,-1.4017422E-1,1.0218456E-1,-1.3859993E-1,-1.07478045E-1,-1.2295001E-1,2.546397E-1,-1.3865896E-1,1.11279644E-1,2.1303788E-1,-1.4151812E-1,-1.439963E-1,1.2028312E-1,-1.5656474E-1,1.16443455E-1,1.2203079E-1,-1.4005195E-1,1.05419695E-1,-1.4203916E-1,7.810342E-2,-1.5107514E-1,8.1671335E-2,-1.400315E-1,7.0806414E-2,-1.4346163E-1],"split_indices":[13,11,3,3,3,6,11,0,9,26,22,25,3,13,28,10,0,25,3,27,0,19,11,6,9,2,6,27,16,0,6,26,0,0,0,0,10,0,15,0,24,0,0,12,21,10,0,17,18,0,15,9,7,0,0,0,0,0,0,0,0,0,0,0,0,0,0,0,0,0,0,0,0,0,0,0,0,0,0,0,0,0,0],"split_type":[0,0,0,0,0,0,0,0,0,0,0,0,0,0,0,0,0,0,0,0,0,0,0,0,0,0,0,0,0,0,0,0,0,0,0,0,0,0,0,0,0,0,0,0,0,0,0,0,0,0,0,0,0,0,0,0,0,0,0,0,0,0,0,0,0,0,0,0,0,0,0,0,0,0,0,0,0,0,0,0,0,0,0],"sum_hessian":[9.186643E4,4.0693406E4,5.1173023E4,3.6109484E4,4.5839194E3,3.4860125E4,1.63128955E4,2.6818691E1,3.6082668E4,2.4676362E3,2.116283E3,3.0923379E4,3.9367476E3,5.2943477E3,1.1018549E4,3.606983E4,1.2838846E1,1.8779707E3,5.896656E2,2.071E3,4.5282974E1,3.0555865E4,3.6751334E2,2.767577E3,1.1691707E3,3.4095132E3,1.8848344E3,2.0798486E3,8.9387E3,4.40501E0,3.606542E4,1.5076245E3,3.703462E2,2.0577824E2,3.8388733E2,2.2660957E1,2.048339E3,6.801559E2,2.9875709E4,2.2259348E2,1.4491988E2,2.5044307E3,2.6314624E2,6.833625E2,4.8580823E2,3.1292266E3,2.8028647E2,6.2884406E2,1.2559902E3,4.6244644E2,1.6174022E3,6.670553E3,2.2681465E3,3.6063484E4,1.9376155E0,1.3010202E2,1.3775226E3,1.3701581E1,2.0346375E3,3.7704102E2,3.0311487E2,2.8262598E4,1.6131117E3,6.7732916E0,1.3814658E2,1.3153125E2,1.3161499E2,5.963757E2,8.6986824E1,3.6495096E2,1.2085726E2,1.0120938E2,3.0280173E3,5.1276447E2,1.1607959E2,1.4086032E2,1.1151299E3,1.3793473E3,2.3805495E2,1.637399E2,6.5068135E3,1.2092385E3,1.0589081E3],"tree_param":{"num_deleted":"0","num_feature":"30","num_nodes":"83","size_leaf_vector":"1"}},{"base_weights":[-5.5023094E-5,1.2212919E0,-9.6317637E-1,1.3121636E0,5.1440704E-1,-1.2114784E0,-4.401248E-1,-1.278728E-1,1.3141329E0,-4.631269E-2,1.1755955E0,-1.2784749E0,-6.938768E-1,3.5601926E-1,-8.2342017E-1,1.3150829E0,-1.2359581E-1,3.6969918E-1,-1.3892245E-1,-1.4973299E-1,1.2350136E0,-1.2955602E0,8.5677214E-2,-1.2635406E0,5.9719115E-1,1.1952026E0,-1.175044E-1,2.8486785E-2,-1.0284519E0,-1.1146372E-1,1.3154178E0,-8.3675385E-1,9.696361E-1,-1.6780235E-1,1.2717069E0,-3.0520797E-1,-1.3185078E0,-1.3298225E-1,2.044507E0,-1.3833761E-1,-1.3112263E-1,1.2154163E0,-1.3782713E-1,-1.592649E0,1.2596899E0,-7.405088E-1,6.62836E-1,3.9024627E-1,-1.4493983E0,-1.2944785E0,-2.7276433E-1,-1.4827341E-1,1.3156258E-1,1.4257826E-1,-1.5256627E-1,1.18594825E-1,-1.3489893E-1,-1.6446047E-1,1.2961857E-1,-1.3500875E-1,9.432791E-2,-1.0168953E-1,-1.3372298E-1,-1.179771E-1,2.1952605E-1,-1.337612E-1,1.0565467E-1,1.8072277E-1,-2.3641799E-2,-1.803834E-1,-1.306312E-1,1.3024424E-1,-2.2530964E-1,-1.2030866E-1,8.619557E-2,9.480842E-2,-1.4006357E-1,7.5044654E-2,-1.4177488E-1,-1.3404113E-1,-1.5234801E-1,7.480972E-2,-1.3485244E-1,6.370058E-2,-1.3776425E-1],"categories":[],"categories_nodes":[],"categories_segments":[],"categories_sizes":[],"default_left":[0,0,0,0,0,0,0,0,0,0,0,0,0,0,0,0,0,0,0,0,0,0,0,0,0,0,0,0,0,0,0,0,0,0,0,0,0,0,0,0,0,0,0,0,0,0,0,0,0,0,0,0,0,0,0,0,0,0,0,0,0,0,0,0,0,0,0,0,0,0,0,0,0,0,0,0,0,0,0,0,0,0,0,0,0],"id":7,"left_children":[1,3,5,7,9,11,13,-1,15,17,19,21,23,25,27,29,-1,31,-1,-1,33,35,37,39,41,43,45,47,49,-1,51,53,55,-1,57,59,61,-1,63,-1,65,67,-1,69,71,73,75,77,79,81,83,-1,-1,-1,-1,-1,-1,-1,-1,-1,-1,-1,-1,-1,-1,-1,-1,-1,-1,-1,-1,-1,-1,-1,-1,-1,-1,-1,-1,-1,-1,-1,-1,-1,-1],"loss_changes":[1.0172857E5,2.4485898E3,6.279199E3,1.740586E2,1.6108921E3,1.136082E3,4.750494E3,0E0,8.341406E1,1.3145223E3,3.1851514E2,6.766719E2,2.7658826E3,2.0106364E3,1.8354204E3,2.8925781E1,0E0,1.301138E3,0E0,0E0,2.1068042E2,6.511328E2,1.00091095E3,3.5386377E2,1.4082212E3,3.3013477E2,1.5733545E3,1.0908868E3,1.7022998E3,0E0,2.1585938E1,9.330226E2,6.036249E2,0E0,1.3972168E2,8.499321E2,1.5686328E2,0E0,7.6187256E1,0E0,3.607454E2,7.5456885E2,0E0,1.6558838E-1,2.7092358E2,1.3349358E3,8.47042E2,1.0685216E3,1.1975098E0,6.925127E2,2.2188193E3,0E0,0E0,0E0,0E0,0E0,0E0,0E0,0E0,0E0,0E0,0E0,0E0,0E0,0E0,0E0,0E0,0E0,0E0,0E0,0E0,0E0,0E0,0E0,0E0,0E0,0E0,0E0,0E0,0E0,0E0,0E0,0E0,0E0,0E0],"parents":[2147483647,0,0,1,1,2,2,3,3,4,4,5,5,6,6,8,8,9,9,10,10,11,11,12,12,13,13,14,14,15,15,17,17,20,20,21,21,22,22,23,23,24,24,25,25,26,26,27,27,28,28,30,30,31,31,32,32,34,34,35,35,36,36,38,38,40,40,41,41,43,43,44,44,45,45,46,46,47,47,48,48,49,49,50,50],"right_children":[2,4,6,8,10,12,14,-1,16,18,20,22,24,26,28,30,-1,32,-1,-1,34,36,38,40,42,44,46,48,50,-1,52,54,56,-1,58,60,62,-1,64,-1,66,68,-1,70,72,74,76,78,80,82,84,-1,-1,-1,-1,-1,-1,-1,-1,-1,-1,-1,-1,-1,-1,-1,-1,-1,-1,-1,-1,-1,-1,-1,-1,-1,-1,-1,-1,-1,-1,-1,-1,-1,-1],"split_conditions":[-1.7859976E0,-1.4160796E0,7.413282E-1,-4.9830067E-1,1.8959074E0,1.0663408E0,-5.575814E-1,-1.278728E-1,5.767415E-1,2.2414032E-2,5.4089034E-1,1.2022438E0,1.5378694E-1,-7.233957E-1,-3.4707233E-1,-7.0277715E-1,-1.2359581E-1,-2.005085E-2,-1.3892245E-1,-1.4973299E-1,-8.7419903E-1,-9.853448E-1,1.3465661E0,3.0202103E0,-2.625529E-1,-9.959347E-1,5.47024E-1,-7.400794E-2,5.5362684E-1,-1.1146372E-1,-1.8752683E0,-2.288321E0,-1.1814422E-1,-1.6780235E-1,-2.4201917E-2,-1.7444316E0,-1.5605403E0,-1.3298225E-1,4.590445E-1,-1.3833761E-1,8.8129526E-1,-7.0378727E-1,-1.3782713E-1,1.1750276E0,1.3126225E0,2.5466412E-1,4.9030712E-1,4.0059403E-1,9.92398E-3,-1.4909433E0,5.5887373E-3,-1.4827341E-1,1.3156258E-1,1.4257826E-1,-1.5256627E-1,1.18594825E-1,-1.3489893E-1,-1.6446047E-1,1.2961857E-1,-1.3500875E-1,9.432791E-2,-1.0168953E-1,-1.3372298E-1,-1.179771E-1,2.1952605E-1,-1.337612E-1,1.0565467E-1,1.8072277E-1,-2.3641799E-2,-1.803834E-1,-1.306312E-1,1.3024424E-1,-2.2530964E-1,-1.2030866E-1,8.619557E-2,9.480842E-2,-1.4006357E-1,7.5044654E-2,-1.4177488E-1,-1.3404113E-1,-1.5234801E-1,7.480972E-2,-1.3485244E-1,6.370058E-2,-1.3776425E-1],"split_indices":[13,11,3,3,3,6,11,0,9,26,17,25,3,13,28,10,0,26,0,0,21,19,11,6,12,10,21,8,16,0,29,4,25,0,27,0,12,0,24,0,14,9,0,2,17,27,17,15,27,9,7,0,0,0,0,0,0,0,0,0,0,0,0,0,0,0,0,0,0,0,0,0,0,0,0,0,0,0,0,0,0,0,0,0,0],"split_type":[0,0,0,0,0,0,0,0,0,0,0,0,0,0,0,0,0,0,0,0,0,0,0,0,0,0,0,0,0,0,0,0,0,0,0,0,0,0,0,0,0,0,0,0,0,0,0,0,0,0,0,0,0,0,0,0,0,0,0,0,0,0,0,0,0,0,0,0,0,0,0,0,0,0,0,0,0,0,0,0,0,0,0,0,0],"sum_hessian":[8.647943E4,3.812824E4,4.8351195E4,3.378433E4,4.343908E3,3.2785844E4,1.556535E4,2.5167269E1,3.3759164E4,2.3510417E3,1.9928666E3,2.9027193E4,3.7586506E3,5.0584653E3,1.0506884E4,3.3747074E4,1.2087036E1,1.7955383E3,5.5550336E2,4.2810974E1,1.9500555E3,2.866819E4,3.5900424E2,2.6079531E3,1.1506976E3,1.8241552E3,3.23431E3,2.0383599E3,8.468524E3,4.192445E0,3.3742883E4,5.962018E2,1.1993365E3,2.370137E1,1.9263542E3,6.495531E2,2.8018637E4,2.0859172E2,1.5041252E2,2.3581821E3,2.4977086E2,8.7671313E2,2.7398453E2,4.070583E1,1.7834493E3,1.7984908E3,1.4358193E3,1.6381149E3,4.002449E2,6.2630234E3,2.205501E3,1.9783565E0,3.3740906E4,1.3891223E2,4.5728955E2,1.0974412E3,1.0189537E2,1.54838915E1,1.9108704E3,3.5356625E2,2.9598685E2,1.6407826E3,2.6377854E4,6.4136343E0,1.4399889E2,1.238411E2,1.2592975E2,6.2265533E2,2.5405782E2,2.0377167E1,2.0328663E1,1.7626265E3,2.0822865E1,1.3958151E3,4.026758E2,1.2619164E3,1.7390298E2,1.3664641E3,2.716508E2,1.6969234E2,2.3055258E2,1.6111462E2,6.1019087E3,1.2097782E3,9.957228E2],"tree_param":{"num_deleted":"0","num_feature":"30","num_nodes":"85","size_leaf_vector":"1"}},{"base_weights":[-2.1105025E-4,1.1827917E0,-9.2372364E-1,1.2722933E0,4.934402E-1,-1.1684452E0,-4.1745824E-1,-1.2373835E-1,1.2742096E0,-4.467867E-2,1.1323498E0,-1.2356861E0,-6.588488E-1,3.3438793E-1,-7.8272444E-1,1.2751375E0,-1.1936182E-1,3.5245374E-1,-1.3393866E-1,-1.4309494E-1,1.1898745E0,-1.2526456E0,7.650568E-2,-1.2172393E0,5.4299736E-1,7.7633274E-1,-4.8411238E-1,2.4591187E-2,-9.844504E-1,1.2754028E0,-1.8227695E-1,-7.980356E-1,9.2518556E-1,-1.5846552E-1,1.2256205E0,-2.9041207E-1,-1.2753879E0,-1.287807E-1,1.8258101E0,-1.1517537E-1,-1.3329692E-1,1.090178E0,-1.3292618E-1,9.603854E-1,-1.3273643E-1,6.793323E-1,-1.0737041E0,-1.3340937E-1,3.89304E-1,-1.2509936E0,-2.550561E-1,1.2756456E-1,-1.5638277E-1,1.3411689E-1,-1.4606263E-1,1.1305852E-1,-1.3036728E-1,-1.5494402E-1,1.24954365E-1,-1.3065226E-1,8.718778E-2,-1.2946872E-1,-9.457543E-2,-1.1358049E-1,1.9559638E-1,9.859584E-2,-1.3261943E-1,1.3766651E-1,-1.3720317E-1,-4.725848E-2,1.1082103E-1,1.12266354E-1,-1.3184379E-1,9.4266675E-2,-1.3385393E-1,6.8653256E-2,-1.4505456E-1,7.01954E-2,-1.3060531E-1,5.7403076E-2,-1.3299006E-1],"categories":[],"categories_nodes":[],"categories_segments":[],"categories_sizes":[],"default_left":[0,0,0,0,0,0,0,0,0,0,0,0,0,0,0,0,0,0,0,0,0,0,0,0,0,0,0,0,0,0,0,0,0,0,0,0,0,0,0,0,0,0,0,0,0,0,0,0,0,0,0,0,0,0,0,0,0,0,0,0,0,0,0,0,0,0,0,0,0,0,0,0,0,0,0,0,0,0,0,0,0],"id":8,"left_children":[1,3,5,7,9,11,13,-1,15,17,19,21,23,25,27,29,-1,31,-1,-1,33,35,37,39,41,43,45,47,49,51,-1,53,55,-1,57,59,61,-1,63,65,-1,67,-1,69,-1,71,73,-1,75,77,79,-1,-1,-1,-1,-1,-1,-1,-1,-1,-1,-1,-1,-1,-1,-1,-1,-1,-1,-1,-1,-1,-1,-1,-1,-1,-1,-1,-1,-1,-1],"loss_changes":[8.863028E4,2.193711E3,5.6440117E3,1.5296875E2,1.4057688E3,1.0515664E3,4.0778042E3,0E0,7.3546875E1,1.14211E3,2.7733716E2,6.03875E2,2.4046904E3,1.756771E3,1.6274844E3,2.8164062E1,0E0,1.1208721E3,0E0,0E0,1.8332251E2,5.8577344E2,8.3079803E2,3.1183472E2,1.1663279E3,1.2222543E3,1.1689739E3,9.909857E2,1.5541094E3,2.3664062E1,0E0,8.035564E2,5.2127466E2,0E0,1.2184131E2,7.330586E2,1.6524219E2,0E0,6.1010895E1,3.1275793E2,0E0,6.229525E2,0E0,6.148933E2,0E0,5.0932944E2,6.0505225E2,0E0,8.631588E2,6.305303E2,1.9087571E3,0E0,0E0,0E0,0E0,0E0,0E0,0E0,0E0,0E0,0E0,0E0,0E0,0E0,0E0,0E0,0E0,0E0,0E0,0E0,0E0,0E0,0E0,0E0,0E0,0E0,0E0,0E0,0E0,0E0,0E0],"parents":[2147483647,0,0,1,1,2,2,3,3,4,4,5,5,6,6,8,8,9,9,10,10,11,11,12,12,13,13,14,14,15,15,17,17,20,20,21,21,22,22,23,23,24,24,25,25,26,26,27,27,28,28,29,29,31,31,32,32,34,34,35,35,36,36,38,38,39,39,41,41,43,43,45,45,46,46,48,48,49,49,50,50],"right_children":[2,4,6,8,10,12,14,-1,16,18,20,22,24,26,28,30,-1,32,-1,-1,34,36,38,40,42,44,46,48,50,52,-1,54,56,-1,58,60,62,-1,64,66,-1,68,-1,70,-1,72,74,-1,76,78,80,-1,-1,-1,-1,-1,-1,-1,-1,-1,-1,-1,-1,-1,-1,-1,-1,-1,-1,-1,-1,-1,-1,-1,-1,-1,-1,-1,-1,-1,-1],"split_conditions":[-1.7859976E0,-1.4160796E0,7.413282E-1,-4.9830067E-1,1.8959074E0,1.0663408E0,-5.575814E-1,-1.2373835E-1,5.767415E-1,2.2414032E-2,5.4089034E-1,1.2022438E0,1.5378694E-1,3.4057415E-1,-3.4707233E-1,1.9602777E0,-1.1936182E-1,-2.005085E-2,-1.3393866E-1,-1.4309494E-1,-8.7419903E-1,-9.853448E-1,1.3465661E0,-1.6809931E0,-2.625529E-1,1.2776982E0,-7.4005884E-1,9.92398E-3,5.5362684E-1,2.1790798E0,-1.8227695E-1,-2.288321E0,-1.1814422E-1,-1.5846552E-1,-2.4201917E-2,-1.7444316E0,1.3500417E0,-1.287807E-1,4.590445E-1,-1.1530814E0,-1.3329692E-1,-8.047335E-2,-1.3292618E-1,-1.1357255E0,-1.3273643E-1,-4.7261924E-2,-2.450811E0,-1.3340937E-1,-7.400794E-2,-3.7707021E0,5.5887373E-3,1.2756456E-1,-1.5638277E-1,1.3411689E-1,-1.4606263E-1,1.1305852E-1,-1.3036728E-1,-1.5494402E-1,1.24954365E-1,-1.3065226E-1,8.718778E-2,-1.2946872E-1,-9.457543E-2,-1.1358049E-1,1.9559638E-1,9.859584E-2,-1.3261943E-1,1.3766651E-1,-1.3720317E-1,-4.725848E-2,1.1082103E-1,1.12266354E-1,-1.3184379E-1,9.4266675E-2,-1.3385393E-1,6.8653256E-2,-1.4505456E-1,7.01954E-2,-1.3060531E-1,5.7403076E-2,-1.3299006E-1],"split_indices":[13,11,3,3,3,6,11,0,9,26,17,25,3,13,28,0,0,26,0,0,21,19,11,9,12,2,6,27,16,6,0,4,25,0,27,0,15,0,24,15,0,9,0,10,0,17,18,0,8,2,7,0,0,0,0,0,0,0,0,0,0,0,0,0,0,0,0,0,0,0,0,0,0,0,0,0,0,0,0,0,0],"split_type":[0,0,0,0,0,0,0,0,0,0,0,0,0,0,0,0,0,0,0,0,0,0,0,0,0,0,0,0,0,0,0,0,0,0,0,0,0,0,0,0,0,0,0,0,0,0,0,0,0,0,0,0,0,0,0,0,0,0,0,0,0,0,0,0,0,0,0,0,0,0,0,0,0,0,0,0,0,0,0,0,0],"sum_hessian":[8.112279E4,3.5564734E4,4.5558055E4,3.1477078E4,4.0876562E3,3.0711326E4,1.48467295E4,2.352533E1,3.1453553E4,2.219349E3,1.8683071E3,2.71301E4,3.5812256E3,4.8545156E3,9.992214E3,3.1442213E4,1.1338292E1,1.6989495E3,5.203997E2,4.0483543E1,1.8278236E3,2.6783977E4,3.461245E2,2.4451638E3,1.1360616E3,3.1524297E3,1.7020858E3,1.997803E3,7.994411E3,3.144011E4,2.1042397E0,5.645341E2,1.1344154E3,2.2698341E1,1.8051252E3,6.187377E2,2.6165238E4,1.9460924E2,1.5151527E2,2.3255965E2,2.2126042E3,8.794531E2,2.5660852E2,2.8993123E3,2.5311755E2,5.7240454E2,1.1296813E3,4.2222113E2,1.5755818E3,5.854339E3,2.1400718E3,3.1437973E4,2.1369805E0,1.3326328E2,4.312708E2,1.039146E3,9.5269356E1,1.4883524E1,1.7902417E3,3.3006253E2,2.8867517E2,2.471528E4,1.4499584E3,6.053045E0,1.4546223E2,1.21903366E2,1.1065628E2,7.881857E2,9.1267365E1,2.7091806E2,2.628394E3,4.68808E2,1.0359654E2,1.3085245E2,9.988288E2,1.3569868E3,2.18595E2,1.6020326E2,5.6941357E3,1.2084181E3,9.3165375E2],"tree_param":{"num_deleted":"0","num_feature":"30","num_nodes":"81","size_leaf_vector":"1"}},{"base_weights":[-3.8007562E-4,1.14972E0,-8.896604E-1,1.2381934E0,4.7502515E-1,-1.1316783E0,-3.9782828E-1,-1.20141946E-1,1.2400656E0,-4.3325175E-2,1.0945909E0,-1.198897E0,-6.301884E-1,3.1648606E-1,-7.4601066E-1,1.2409756E0,-1.1562311E-1,3.3715194E-1,-1.2972568E-1,-1.3747099E-1,1.1504475E0,-1.2157085E0,6.959653E-2,-1.1776345E0,5.0159657E-1,1.0782967E0,-1.1124934E-1,2.1156456E-2,-9.4505054E-1,-1.0918748E-1,1.2413368E0,-7.651618E-1,8.851216E-1,-1.5071782E-1,1.1853504E0,-2.7695277E-1,-1.2383813E0,-1.2519994E-1,1.666033E0,-1.2927909E-1,-1.09534994E-1,1.2441037E0,-6.984958E-1,-2.162875E0,1.1270378E0,-6.924898E-1,6.025652E-1,1.0546819E0,-4.3960038E-1,-2.3981026E-1,-1.2189946E0,-1.4669661E-1,1.2415709E-1,-1.4058715E-1,1.271388E-1,1.0805774E-1,-1.2649943E-1,-1.9041444E-1,1.2066901E-1,-1.2694098E-1,8.063953E-2,-9.014141E-2,-1.2598614E-1,-1.1232562E-1,1.7818253E-1,-1.2679602E-1,9.953369E-2,1.5587817E-1,-1.3122784E-1,-1.3240115E-1,1.12021744E-1,-2.3653264E-1,-1.1414905E-1,1.18084304E-1,-1.7034099E-1,-1.1198765E-1,7.673056E-2,8.541457E-2,-1.3318156E-1,1.6996343E-1,-1.4743952E-1,-1.4414202E-1,4.8502117E-2,1.0182249E-1,-8.860233E-2,-1.2756054E-1,6.307566E-2],"categories":[],"categories_nodes":[],"categories_segments":[],"categories_sizes":[],"default_left":[0,0,0,0,0,0,0,0,0,0,0,0,0,0,0,0,0,0,0,0,0,0,0,0,0,0,0,0,0,0,0,0,0,0,0,0,0,0,0,0,0,0,0,0,0,0,0,0,0,0,0,0,0,0,0,0,0,0,0,0,0,0,0,0,0,0,0,0,0,0,0,0,0,0,0,0,0,0,0,0,0,0,0,0,0,0,0],"id":9,"left_children":[1,3,5,7,9,11,13,-1,15,17,19,21,23,25,27,29,-1,31,-1,-1,33,35,37,39,41,43,45,47,49,-1,51,53,55,-1,57,59,61,-1,63,-1,65,67,69,71,73,75,77,79,81,83,85,-1,-1,-1,-1,-1,-1,-1,-1,-1,-1,-1,-1,-1,-1,-1,-1,-1,-1,-1,-1,-1,-1,-1,-1,-1,-1,-1,-1,-1,-1,-1,-1,-1,-1,-1,-1],"loss_changes":[7.753976E4,1.9727891E3,5.0887734E3,1.3498047E2,1.2313865E3,9.6516406E2,3.507523E3,0E0,6.512109E1,9.968664E2,2.4248193E2,5.3889844E2,2.1003252E3,1.5061805E3,1.4477261E3,2.5953125E1,0E0,9.690309E2,0E0,0E0,1.602644E2,5.3039453E2,7.013406E2,2.8083423E2,9.859702E2,2.650027E2,1.2288751E3,9.309945E2,1.4540635E3,0E0,2.0335938E1,6.970741E2,4.515794E2,0E0,1.1351318E2,6.3466235E2,1.7509375E2,0E0,5.0620453E1,0E0,2.8721042E2,5.5173535E2,4.829243E2,2.4625168E0,2.5147656E2,1.0193402E3,6.481019E2,9.8578937E2,1.2532827E3,1.7140471E3,5.685259E2,0E0,0E0,0E0,0E0,0E0,0E0,0E0,0E0,0E0,0E0,0E0,0E0,0E0,0E0,0E0,0E0,0E0,0E0,0E0,0E0,0E0,0E0,0E0,0E0,0E0,0E0,0E0,0E0,0E0,0E0,0E0,0E0,0E0,0E0,0E0,0E0],"parents":[2147483647,0,0,1,1,2,2,3,3,4,4,5,5,6,6,8,8,9,9,10,10,11,11,12,12,13,13,14,14,15,15,17,17,20,20,21,21,22,22,23,23,24,24,25,25,26,26,27,27,28,28,30,30,31,31,32,32,34,34,35,35,36,36,38,38,40,40,41,41,42,42,43,43,44,44,45,45,46,46,47,47,48,48,49,49,50,50],"right_children":[2,4,6,8,10,12,14,-1,16,18,20,22,24,26,28,30,-1,32,-1,-1,34,36,38,40,42,44,46,48,50,-1,52,54,56,-1,58,60,62,-1,64,-1,66,68,70,72,74,76,78,80,82,84,86,-1,-1,-1,-1,-1,-1,-1,-1,-1,-1,-1,-1,-1,-1,-1,-1,-1,-1,-1,-1,-1,-1,-1,-1,-1,-1,-1,-1,-1,-1,-1,-1,-1,-1,-1,-1],"split_conditions":[-1.7859976E0,-1.4160796E0,7.413282E-1,-4.9830067E-1,1.8959074E0,1.0663408E0,-5.575814E-1,-1.20141946E-1,5.767415E-1,2.2414032E-2,5.4089034E-1,1.2022438E0,1.5378694E-1,-7.233957E-1,-3.4707233E-1,-7.0277715E-1,-1.1562311E-1,-2.005085E-2,-1.2972568E-1,-1.3747099E-1,-8.7419903E-1,-9.853448E-1,1.3465661E0,3.0202103E0,-7.0378727E-1,-5.3496045E-1,5.47024E-1,9.120405E-1,-4.254906E-1,-1.0918748E-1,-1.8752683E0,2.441433E0,-1.1814422E-1,-1.5071782E-1,-1.851302E0,-1.7444316E0,-1.5605403E0,-1.2519994E-1,1.0524671E0,-1.2927909E-1,-7.6918113E-1,-5.6053513E-1,1.5944186E0,1.2034454E0,1.2456738E0,2.5466412E-1,4.9030712E-1,-8.7526965E-1,2.4474049E0,-2.6673785E-1,1.4362998E0,-1.4669661E-1,1.2415709E-1,-1.4058715E-1,1.271388E-1,1.0805774E-1,-1.2649943E-1,-1.9041444E-1,1.2066901E-1,-1.2694098E-1,8.063953E-2,-9.014141E-2,-1.2598614E-1,-1.1232562E-1,1.7818253E-1,-1.2679602E-1,9.953369E-2,1.5587817E-1,-1.3122784E-1,-1.3240115E-1,1.12021744E-1,-2.3653264E-1,-1.1414905E-1,1.18084304E-1,-1.7034099E-1,-1.1198765E-1,7.673056E-2,8.541457E-2,-1.3318156E-1,1.6996343E-1,-1.4743952E-1,-1.4414202E-1,4.8502117E-2,1.0182249E-1,-8.860233E-2,-1.2756054E-1,6.307566E-2],"split_indices":[13,11,3,3,3,6,11,0,9,26,17,25,3,13,28,10,0,26,0,0,21,19,11,6,9,24,21,3,13,0,29,28,25,0,8,0,12,0,18,0,0,12,21,2,0,27,17,29,3,19,8,0,0,0,0,0,0,0,0,0,0,0,0,0,0,0,0,0,0,0,0,0,0,0,0,0,0,0,0,0,0,0,0,0,0,0,0],"split_type":[0,0,0,0,0,0,0,0,0,0,0,0,0,0,0,0,0,0,0,0,0,0,0,0,0,0,0,0,0,0,0,0,0,0,0,0,0,0,0,0,0,0,0,0,0,0,0,0,0,0,0,0,0,0,0,0,0,0,0,0,0,0,0,0,0,0,0,0,0,0,0,0,0,0,0,0,0,0,0,0,0,0,0,0,0,0,0],"sum_hessian":[7.581212E4,3.3058062E4,4.275405E4,2.9224934E4,3.8331294E3,2.8653236E4,1.4100817E4,2.1919207E1,2.9203014E4,2.087546E3,1.7455835E3,2.5265332E4,3.3879026E3,4.620897E3,9.47992E3,2.919241E4,1.0604597E1,1.602143E3,4.8540286E2,3.8090057E1,1.7074934E3,2.4934908E4,3.3042484E2,2.2833853E3,1.1045175E3,1.6610293E3,2.9598677E3,1.9530597E3,7.5268604E3,4.050907E0,2.918836E4,5.318532E2,1.0702898E3,2.1587233E1,1.6859061E3,5.883347E2,2.4346574E4,1.808913E2,1.4953352E2,2.0609727E3,2.2241263E2,6.8232227E2,4.2219516E2,2.3966114E1,1.6370632E3,1.6314503E3,1.3284174E3,6.0182184E2,1.3512378E3,2.1062969E3,5.4205635E3,1.9824127E0,2.9186377E4,4.0480804E2,1.2704516E2,9.815588E2,8.873098E1,1.0959686E1,1.6749465E3,3.0695813E2,2.8137662E2,1.4615596E3,2.2885014E4,5.6133876E0,1.4392014E2,1.0850293E2,1.1390969E2,6.078849E2,7.4437386E1,3.1435132E2,1.0784383E2,1.8903412E1,5.062703E0,1.6070961E3,2.996713E1,1.2621589E3,3.6929144E2,1.176025E3,1.5239232E2,4.7979495E2,1.2202691E2,6.482766E2,7.0296124E2,7.1458356E2,1.3917133E3,5.259898E3,1.6066585E2],"tree_param":{"num_deleted":"0","num_feature":"30","num_nodes":"87","size_leaf_vector":"1"}},{"base_weights":[-5.114216E-4,1.121036E0,-8.580603E-1,1.208833E0,4.584513E-1,-1.0999163E0,-3.780801E-1,-1.1697902E-1,1.2106684E0,-4.21955E-2,1.0604436E0,-1.1668543E0,-6.066269E-1,2.980595E-1,-7.1025443E-1,1.2115643E0,-1.1228192E-1,3.2334957E-1,-1.2613145E-1,-1.5222284E0,1.1123353E0,-1.1835067E0,6.416287E-2,-1.143808E0,4.6969455E-1,6.965696E-1,-4.6019503E-1,1.7661335E-2,-9.0544134E-1,1.2147101E0,8.9877707E-1,-7.368113E-1,8.484538E-1,-1.3331743E-1,-2.0835672E-1,-1.5237425E-1,1.1535583E0,-2.6453033E-1,-1.2062289E0,-1.22122385E-1,1.5435985E0,-9.424165E-2,-1.2567881E-1,9.28006E-1,-1.2539934E-1,8.6602503E-1,-1.2803057E-1,6.340921E-1,-1.023432E0,-9.1026413E-1,4.687397E-1,-1.0238487E0,7.5778383E-1,1.21493794E-1,-1.480132E-1,1.1907487E-1,-3.9252636E-1,1.2107351E-1,-1.3595562E-1,1.0347164E-1,-1.231673E-1,1.17884696E-1,-1.4614375E-1,-1.2375213E-1,7.459329E-2,-1.22886E-1,-8.3274186E-2,-1.0737176E-1,1.6517963E-1,-1.2598316E-1,9.3490005E-2,-1.446499E-1,1.184208E-1,9.509348E-2,-1.4489582E-1,1.0260031E-1,-1.3997522E-1,8.478132E-2,-1.2800021E-1,1.345927E-1,-1.4283699E-1,1.0394033E-1,-1.3283975E-1,2.2148198E-2,-1.1524756E-1,-1.323072E-1,1.2718989E-1],"categories":[],"categories_nodes":[],"categories_segments":[],"categories_sizes":[],"default_left":[0,0,0,0,0,0,0,0,0,0,0,0,0,0,0,0,0,0,0,0,0,0,0,0,0,0,0,0,0,0,0,0,0,0,0,0,0,0,0,0,0,0,0,0,0,0,0,0,0,0,0,0,0,0,0,0,0,0,0,0,0,0,0,0,0,0,0,0,0,0,0,0,0,0,0,0,0,0,0,0,0,0,0,0,0,0,0],"id":10,"left_children":[1,3,5,7,9,11,13,-1,15,17,19,21,23,25,27,29,-1,31,-1,33,35,37,39,41,43,45,47,49,51,53,55,57,59,-1,-1,-1,61,63,65,-1,67,69,-1,71,-1,73,-1,75,77,79,81,83,85,-1,-1,-1,-1,-1,-1,-1,-1,-1,-1,-1,-1,-1,-1,-1,-1,-1,-1,-1,-1,-1,-1,-1,-1,-1,-1,-1,-1,-1,-1,-1,-1,-1,-1],"loss_changes":[6.800783E4,1.7818047E3,4.651299E3,1.1951953E2,1.0809539E3,8.7909375E2,3.0160142E3,0E0,5.7878906E1,8.734284E2,2.1993677E2,4.8098828E2,1.8424298E3,1.3372065E3,1.2793599E3,2.55E1,0E0,8.4007166E2,0E0,6.709366E-1,1.752937E2,4.8301172E2,5.991258E2,2.5190723E2,8.3958484E2,9.7274585E2,9.404336E2,7.97769E2,1.3991304E3,1.8226562E1,3.8907574E2,6.080785E2,3.921703E2,0E0,0E0,0E0,1.0574121E2,5.512901E2,1.8990234E2,0E0,4.3247223E1,2.5024272E2,0E0,5.1210046E2,0E0,5.266138E2,0E0,4.1492102E2,4.8456604E2,7.3070404E2,1.3166428E3,1.0621094E3,5.0713364E2,0E0,0E0,0E0,0E0,0E0,0E0,0E0,0E0,0E0,0E0,0E0,0E0,0E0,0E0,0E0,0E0,0E0,0E0,0E0,0E0,0E0,0E0,0E0,0E0,0E0,0E0,0E0,0E0,0E0,0E0,0E0,0E0,0E0,0E0],"parents":[2147483647,0,0,1,1,2,2,3,3,4,4,5,5,6,6,8,8,9,9,10,10,11,11,12,12,13,13,14,14,15,15,17,17,19,19,20,20,21,21,22,22,23,23,24,24,25,25,26,26,27,27,28,28,29,29,30,30,31,31,32,32,36,36,37,37,38,38,40,40,41,41,43,43,45,45,47,47,48,48,49,49,50,50,51,51,52,52],"right_children":[2,4,6,8,10,12,14,-1,16,18,20,22,24,26,28,30,-1,32,-1,34,36,38,40,42,44,46,48,50,52,54,56,58,60,-1,-1,-1,62,64,66,-1,68,70,-1,72,-1,74,-1,76,78,80,82,84,86,-1,-1,-1,-1,-1,-1,-1,-1,-1,-1,-1,-1,-1,-1,-1,-1,-1,-1,-1,-1,-1,-1,-1,-1,-1,-1,-1,-1,-1,-1,-1,-1,-1,-1],"split_conditions":[-1.7859976E0,-1.4160796E0,7.413282E-1,-4.9830067E-1,1.8959074E0,1.0663408E0,-5.575814E-1,-1.1697902E-1,5.767415E-1,2.2414032E-2,-2.2614773E-1,1.2022438E0,1.5378694E-1,3.4057415E-1,-3.4707233E-1,-2.635484E0,-1.1228192E-1,-2.005085E-2,-1.2613145E-1,1.1560961E0,-1.987277E-2,-9.853448E-1,1.3465661E0,-1.6809931E0,-2.625529E-1,1.2776982E0,-7.4005884E-1,5.7993103E-2,1.6188225E0,2.1790798E0,-1.5891272E0,-2.288321E0,-1.1814422E-1,-1.3331743E-1,-2.0835672E-1,-1.5237425E-1,2.0129874E0,-1.7444316E0,1.3500417E0,-1.22122385E-1,4.590445E-1,-7.6918113E-1,-1.2567881E-1,-3.8602716E-1,-1.2539934E-1,1.2456738E0,-1.2803057E-1,7.142417E-1,-2.450811E0,-1.8650155E0,4.0059403E-1,-5.0159526E-1,2.4474049E0,1.21493794E-1,-1.480132E-1,1.1907487E-1,-3.9252636E-1,1.2107351E-1,-1.3595562E-1,1.0347164E-1,-1.231673E-1,1.17884696E-1,-1.4614375E-1,-1.2375213E-1,7.459329E-2,-1.22886E-1,-8.3274186E-2,-1.0737176E-1,1.6517963E-1,-1.2598316E-1,9.3490005E-2,-1.446499E-1,1.184208E-1,9.509348E-2,-1.4489582E-1,1.0260031E-1,-1.3997522E-1,8.478132E-2,-1.2800021E-1,1.345927E-1,-1.4283699E-1,1.0394033E-1,-1.3283975E-1,2.2148198E-2,-1.1524756E-1,-1.323072E-1,1.2718989E-1],"split_indices":[13,11,3,3,3,6,11,0,9,26,19,25,3,13,28,13,0,26,0,17,10,19,11,9,12,2,6,15,16,6,0,4,25,0,0,0,1,0,15,0,24,0,0,14,0,0,0,2,18,24,15,19,3,0,0,0,0,0,0,0,0,0,0,0,0,0,0,0,0,0,0,0,0,0,0,0,0,0,0,0,0,0,0,0,0,0,0],"split_type":[0,0,0,0,0,0,0,0,0,0,0,0,0,0,0,0,0,0,0,0,0,0,0,0,0,0,0,0,0,0,0,0,0,0,0,0,0,0,0,0,0,0,0,0,0,0,0,0,0,0,0,0,0,0,0,0,0,0,0,0,0,0,0,0,0,0,0,0,0,0,0,0,0,0,0,0,0,0,0,0,0,0,0,0,0,0,0],"sum_hessian":[7.070824E4,3.0637979E4,4.0070266E4,2.7052514E4,3.585466E3,2.66436E4,1.3426665E4,2.036756E1,2.7032146E4,1.958014E3,1.627452E3,2.3458924E4,3.1846758E3,4.4232534E3,9.003412E3,2.7022252E4,9.894506E0,1.5069111E3,4.5110297E2,3.1497005E1,1.5959551E3,2.314586E4,3.13065E2,2.1243645E3,1.0603114E3,2.8994778E3,1.5237755E3,1.903933E3,7.099479E3,2.6750332E4,2.7191895E2,4.990167E2,1.0078944E3,2.6086338E1,5.410668E0,2.4019485E1,1.5719355E3,5.5878723E2,2.2587072E4,1.676121E2,1.4545288E2,2.066307E2,1.9177338E3,8.379661E2,2.2234521E2,2.6710781E3,2.2839969E2,5.177456E2,1.0060299E3,6.224521E2,1.2814808E3,6.6280063E3,4.7147263E2,2.674862E4,1.7121975E0,2.5711066E2,1.4808277E1,1.2067584E2,3.7834085E2,9.2552216E2,8.237222E1,1.5574235E3,1.4512132E1,2.8455756E2,2.7422968E2,2.129446E4,1.2926105E3,5.419952E0,1.4003293E2,9.678705E1,1.09843666E2,8.115624E1,7.568099E2,2.577142E3,9.393606E1,4.3451282E2,8.323278E1,1.2102837E2,8.850015E2,1.15945854E2,5.0650623E2,9.7295123E2,3.0852966E2,6.2043207E2,6.007574E3,9.3096306E1,3.7837634E2],"tree_param":{"num_deleted":"0","num_feature":"30","num_nodes":"87","size_leaf_vector":"1"}},{"base_weights":[-6.114198E-4,1.0960407E0,-8.3002037E-1,1.1842153E0,4.4775772E-1,-1.0715226E0,-3.6086366E-1,-1.3508575E-1,1.1864E0,-1.499441E-1,1.0315015E0,-1.1387221E0,-5.8384424E-1,2.8254572E-1,-6.777409E-1,1.1872382E0,-1.4355938E-1,4.3686062E-1,-1.0365849E0,1.0750102E0,-1.9845449E0,-1.1552074E0,5.980385E-2,-1.1141895E0,4.3701452E-1,9.871316E-1,-1.1129281E-1,1.51325585E-2,-8.67245E-1,-1.3203387E-1,1.1879759E0,-1.4129132E0,8.2621044E-1,-1.3864715E0,6.396178E-1,1.1005757E0,-1.9093764E0,-4.090518E-1,-1.4993289E0,-2.5291762E-1,-1.1780912E0,-1.1945758E-1,1.4476386E0,-1.2274356E-1,-8.762699E-2,1.0907763E0,-6.8821025E-1,-1.5277172E0,1.0506934E0,-6.5224516E-1,5.431604E-1,9.205853E-1,-4.129624E-1,-1.1520847E0,-1.6528213E-1,1.1884878E-1,-1.4689949E-1,-2.6147357E-1,-1.3246143E-1,-1.3326025E-1,1.0443582E-1,-1.6017254E-1,-1.2186112E-1,1.1833481E-1,-1.2474978E-1,1.1260755E-1,-1.2506287E-1,-1.1527132E-1,-2.2407949E-1,-1.2014778E-1,-1.8902826E-1,-1.2099176E-1,6.898339E-2,-7.971033E-2,-1.20320834E-1,1.5487868E-1,-1.0867212E-1,9.4014265E-2,-1.2176869E-1,-1.5484641E-1,1.3598624E-1,-1.2732758E-1,1.0385789E-1,-1.7412907E-1,-1.2009638E-1,1.0972071E-1,-2.222216E-1,5.787129E-2,-1.1338788E-1,7.676297E-2,-1.2885375E-1,1.4574736E-1,-1.3872579E-1,-1.3627099E-1,4.1412525E-2,7.619509E-2,-1.2159377E-1,5.447585E-2,-1.2399025E-1],"categories":[],"categories_nodes":[],"categories_segments":[],"categories_sizes":[],"default_left":[0,0,0,0,0,0,0,0,0,0,0,0,0,0,0,0,0,0,0,0,0,0,0,0,0,0,0,0,0,0,0,0,0,0,0,0,0,0,0,0,0,0,0,0,0,0,0,0,0,0,0,0,0,0,0,0,0,0,0,0,0,0,0,0,0,0,0,0,0,0,0,0,0,0,0,0,0,0,0,0,0,0,0,0,0,0,0,0,0,0,0,0,0,0,0,0,0,0,0],"id":11,"left_children":[1,3,5,7,9,11,13,-1,15,17,19,21,23,25,27,29,-1,31,33,35,37,39,41,43,45,47,49,51,53,-1,55,57,59,61,63,65,67,-1,69,71,73,-1,75,-1,77,79,81,83,85,87,89,91,93,95,97,-1,-1,-1,-1,-1,-1,-1,-1,-1,-1,-1,-1,-1,-1,-1,-1,-1,-1,-1,-1,-1,-1,-1,-1,-1,-1,-1,-1,-1,-1,-1,-1,-1,-1,-1,-1,-1,-1,-1,-1,-1,-1,-1,-1],"loss_changes":[5.982508E4,1.6184883E3,4.242715E3,1.396836E2,1.1838845E3,8.095332E2,2.5951733E3,0E0,5.6453125E1,8.730659E2,2.2738196E2,4.2936133E2,1.622605E3,1.1657678E3,1.1197861E3,4.7628906E1,0E0,7.285372E2,3.9279694E2,1.3125488E2,1.9169312E1,4.4223828E2,5.165897E2,2.2915063E2,7.5481976E2,2.4237646E2,9.54611E2,7.107108E2,1.3387847E3,0E0,3.5609375E1,1.52117E1,3.9460773E2,1.8035034E1,1.2058701E2,1.020741E2,1.1142387E0,0E0,2.5611877E-1,4.8027087E2,1.990625E2,0E0,3.779132E1,0E0,2.2996043E2,4.6283716E2,3.8251923E2,5.2845E-1,2.2617932E2,8.7581067E2,5.0272632E2,7.3131995E2,9.7850476E2,5.8310693E2,1.4764791E3,0E0,0E0,0E0,0E0,0E0,0E0,0E0,0E0,0E0,0E0,0E0,0E0,0E0,0E0,0E0,0E0,0E0,0E0,0E0,0E0,0E0,0E0,0E0,0E0,0E0,0E0,0E0,0E0,0E0,0E0,0E0,0E0,0E0,0E0,0E0,0E0,0E0,0E0,0E0,0E0,0E0,0E0,0E0,0E0],"parents":[2147483647,0,0,1,1,2,2,3,3,4,4,5,5,6,6,8,8,9,9,10,10,11,11,12,12,13,13,14,14,15,15,17,17,18,18,19,19,20,20,21,21,22,22,23,23,24,24,25,25,26,26,27,27,28,28,30,30,31,31,32,32,33,33,34,34,35,35,36,36,38,38,39,39,40,40,42,42,44,44,45,45,46,46,47,47,48,48,49,49,50,50,51,51,52,52,53,53,54,54],"right_children":[2,4,6,8,10,12,14,-1,16,18,20,22,24,26,28,30,-1,32,34,36,38,40,42,44,46,48,50,52,54,-1,56,58,60,62,64,66,68,-1,70,72,74,-1,76,-1,78,80,82,84,86,88,90,92,94,96,98,-1,-1,-1,-1,-1,-1,-1,-1,-1,-1,-1,-1,-1,-1,-1,-1,-1,-1,-1,-1,-1,-1,-1,-1,-1,-1,-1,-1,-1,-1,-1,-1,-1,-1,-1,-1,-1,-1,-1,-1,-1,-1,-1,-1],"split_conditions":[-1.7859976E0,-1.7696148E0,7.413282E-1,-4.8604634E-1,2.1870494E0,1.0663408E0,-5.575814E-1,-1.3508575E-1,3.1570253E-1,-1.1702472E-1,7.382561E-1,1.2022438E0,1.5378694E-1,-7.233957E-1,-3.4707233E-1,-4.8450577E-1,-1.4355938E-1,-1.09392956E-1,1.5157312E0,1.2857577E0,-1.7750509E0,-9.853448E-1,1.3465661E0,3.0202103E0,-7.0378727E-1,-9.959347E-1,5.47024E-1,9.120405E-1,5.5362684E-1,-1.3203387E-1,-1.7279367E-1,-1.4160796E0,-2.0593171E-1,-1.1814422E-1,-1.0690001E0,5.767415E-1,-3.8468495E-1,-4.090518E-1,8.183906E-1,-1.7444316E0,-1.5605403E0,-1.1945758E-1,1.381524E0,-1.2274356E-1,1.8856989E0,1.10091396E-1,1.5944186E0,1.1888878E0,1.3126225E0,-3.9261013E-1,4.9030712E-1,-8.7526965E-1,2.4474049E0,-1.4909433E0,5.5887373E-3,1.1884878E-1,-1.4689949E-1,-2.6147357E-1,-1.3246143E-1,-1.3326025E-1,1.0443582E-1,-1.6017254E-1,-1.2186112E-1,1.1833481E-1,-1.2474978E-1,1.1260755E-1,-1.2506287E-1,-1.1527132E-1,-2.2407949E-1,-1.2014778E-1,-1.8902826E-1,-1.2099176E-1,6.898339E-2,-7.971033E-2,-1.20320834E-1,1.5487868E-1,-1.0867212E-1,9.4014265E-2,-1.2176869E-1,-1.5484641E-1,1.3598624E-1,-1.2732758E-1,1.0385789E-1,-1.7412907E-1,-1.2009638E-1,1.0972071E-1,-2.222216E-1,5.787129E-2,-1.1338788E-1,7.676297E-2,-1.2885375E-1,1.4574736E-1,-1.3872579E-1,-1.3627099E-1,4.1412525E-2,7.619509E-2,-1.2159377E-1,5.447585E-2,-1.2399025E-1],"split_indices":[13,9,3,3,3,6,11,0,11,21,12,25,3,13,28,10,0,29,29,29,11,19,11,6,9,10,21,3,16,0,2,11,20,25,6,9,20,0,17,0,12,0,11,0,28,23,21,2,17,20,17,29,3,9,7,0,0,0,0,0,0,0,0,0,0,0,0,0,0,0,0,0,0,0,0,0,0,0,0,0,0,0,0,0,0,0,0,0,0,0,0,0,0,0,0,0,0,0,0],"split_type":[0,0,0,0,0,0,0,0,0,0,0,0,0,0,0,0,0,0,0,0,0,0,0,0,0,0,0,0,0,0,0,0,0,0,0,0,0,0,0,0,0,0,0,0,0,0,0,0,0,0,0,0,0,0,0,0,0,0,0,0,0,0,0,0,0,0,0,0,0,0,0,0,0,0,0,0,0,0,0,0,0,0,0,0,0,0,0,0,0,0,0,0,0,0,0,0,0,0,0],"sum_hessian":[6.577069E4,2.8322326E4,3.7448363E4,2.4930625E4,3.391702E3,2.472149E4,1.2726875E4,2.09352E1,2.490969E4,1.6761827E3,1.7155192E3,2.1726377E4,2.9951123E3,4.1996743E3,8.5272E3,2.4902275E4,7.4132814E0,1.0089425E3,6.6724023E2,1.6917579E3,2.3761257E1,2.1431629E4,2.9474863E2,1.9710452E3,1.024067E3,1.5052472E3,2.6944272E3,1.8315449E3,6.6956553E3,6.796762E0,2.4895479E4,1.7498277E2,8.339598E2,5.521571E2,1.1508313E2,1.6780145E3,1.3743393E1,3.0580714E0,2.0703186E1,5.304002E2,2.0901229E4,1.5489116E2,1.3985747E2,1.7750352E3,1.9601009E2,6.477508E2,3.7631622E2,3.653884E1,1.4687084E3,1.47513E3,1.2192971E3,5.875925E2,1.2439524E3,4.7625044E3,1.933151E3,2.4891236E4,4.2429204E0,1.0017937E1,1.6496483E2,7.606854E1,7.5789124E2,2.3818335E2,3.139738E2,8.963092E1,2.5452215E1,1.6605265E3,1.7488039E1,5.550084E0,8.193309E0,1.4062648E1,6.640538E0,2.6307043E2,2.673298E2,1.2947467E3,1.9606482E4,1.3486383E2,4.993633E0,1.0273891E2,9.327118E1,5.9491688E1,5.8825916E2,2.812773E2,9.50389E1,1.9478312E1,1.7060532E1,1.4487834E3,1.9924942E1,4.1479544E2,1.0603346E3,1.0867054E3,1.3259166E2,4.7699466E2,1.1059787E2,5.7873804E2,6.6521436E2,1.5339685E2,4.6091074E3,1.1643295E3,7.6882153E2],"tree_param":{"num_deleted":"0","num_feature":"30","num_nodes":"99","size_leaf_vector":"1"}},{"base_weights":[-8.068766E-4,1.0736222E0,-8.042237E-1,1.1613423E0,4.263522E-1,-1.0465047E0,-3.447439E-1,-1.1104814E-1,1.1630799E0,-4.4445805E-2,9.999298E-1,-1.150162E0,-7.1879107E-1,2.6612282E-1,-6.4971983E-1,1.1639076E0,-1.0476911E-1,-5.287144E-1,7.729536E-1,1.058039E0,-1.308415E-1,-1.1696439E0,1.0525867E-1,1.410072E0,-8.4899104E-1,9.416158E-1,-1.04929745E-1,1.2488117E-2,-8.37062E-1,1.167353E0,8.29767E-1,1.7078844E-1,-1.3498502E0,1.0220035E0,-1.4189024E-1,1.0914159E0,-1.6125491E0,-1.1828823E0,3.8468984E-1,-1.17107175E-1,1.3694036E0,2.2195835E0,-1.1641902E-1,-1.138727E0,3.2071867E-3,9.985577E-1,-1.8613231E0,5.1728797E-1,-6.1525995E-1,-1.23637654E-1,3.0485904E-1,-1.5838976E-1,-1.1322486E0,1.1676079E-1,-1.3823955E-1,-3.1759325E-1,1.1385168E-1,7.243048E-2,-1.1821313E-1,-1.4965494E-1,-1.2095469E-1,1.104302E-1,-1.8340673E-1,1.1174569E-1,-1.450454E-1,-1.22781016E-1,-2.059515E-1,-1.2718414E-1,-1.1813488E-1,-1.1684729E-1,1.2292059E-1,-1.04481734E-1,1.4663643E-1,3.1999838E-1,1.1598046E-1,-1.19142435E-1,-8.514771E-3,8.553915E-2,-8.988755E-2,1.0514362E-1,-1.5384433E-1,-2.2493458E-1,-1.20303236E-1,8.651174E-2,-1.3134201E-1,-1.34932E-1,1.5164951E-2,5.4196484E-2,-1.4877845E-1,4.728216E-2,-1.2841088E-1,-1.1989697E-1,6.6716515E-2],"categories":[],"categories_nodes":[],"categories_segments":[],"categories_sizes":[],"default_left":[0,0,0,0,0,0,0,0,0,0,0,0,0,0,0,0,0,0,0,0,0,0,0,0,0,0,0,0,0,0,0,0,0,0,0,0,0,0,0,0,0,0,0,0,0,0,0,0,0,0,0,0,0,0,0,0,0,0,0,0,0,0,0,0,0,0,0,0,0,0,0,0,0,0,0,0,0,0,0,0,0,0,0,0,0,0,0,0,0,0,0,0,0],"id":12,"left_children":[1,3,5,7,9,11,13,-1,15,17,19,21,23,25,27,29,-1,31,33,35,-1,37,39,41,43,45,47,49,51,53,55,57,59,61,-1,63,65,67,69,-1,71,73,-1,75,77,79,81,83,85,-1,87,89,91,-1,-1,-1,-1,-1,-1,-1,-1,-1,-1,-1,-1,-1,-1,-1,-1,-1,-1,-1,-1,-1,-1,-1,-1,-1,-1,-1,-1,-1,-1,-1,-1,-1,-1,-1,-1,-1,-1,-1,-1],"loss_changes":[5.2729914E4,1.4834023E3,3.8904668E3,9.214258E1,8.427639E2,7.765254E2,2.2484614E3,0E0,4.3310547E1,6.792291E2,1.9009326E2,4.252754E2,1.5261003E3,1.0075353E3,9.986555E2,2.55E1,0E0,6.191188E2,3.4994397E2,1.2413098E2,0E0,3.526836E2,4.3167252E2,6.641241E2,1.2802639E3,2.2932397E2,8.2439636E2,6.4888947E2,1.2568472E3,1.640039E1,2.9807098E2,4.3723264E2,8.393799E0,1.3690894E2,0E0,9.141199E1,4.548645E-1,8.125E-1,1.92043E2,0E0,3.2987213E1,2.475752E2,0E0,2.147373E2,1.01287384E3,1.8908984E2,4.631317E0,7.4613654E2,8.031301E2,0E0,6.1286536E2,1.3528619E3,5.2576514E2,0E0,0E0,0E0,0E0,0E0,0E0,0E0,0E0,0E0,0E0,0E0,0E0,0E0,0E0,0E0,0E0,0E0,0E0,0E0,0E0,0E0,0E0,0E0,0E0,0E0,0E0,0E0,0E0,0E0,0E0,0E0,0E0,0E0,0E0,0E0,0E0,0E0,0E0,0E0,0E0],"parents":[2147483647,0,0,1,1,2,2,3,3,4,4,5,5,6,6,8,8,9,9,10,10,11,11,12,12,13,13,14,14,15,15,17,17,18,18,19,19,21,21,22,22,23,23,24,24,25,25,26,26,27,27,28,28,29,29,30,30,31,31,32,32,33,33,35,35,36,36,37,37,38,38,40,40,41,41,43,43,44,44,45,45,46,46,47,47,48,48,50,50,51,51,52,52],"right_children":[2,4,6,8,10,12,14,-1,16,18,20,22,24,26,28,30,-1,32,34,36,-1,38,40,42,44,46,48,50,52,54,56,58,60,62,-1,64,66,68,70,-1,72,74,-1,76,78,80,82,84,86,-1,88,90,92,-1,-1,-1,-1,-1,-1,-1,-1,-1,-1,-1,-1,-1,-1,-1,-1,-1,-1,-1,-1,-1,-1,-1,-1,-1,-1,-1,-1,-1,-1,-1,-1,-1,-1,-1,-1,-1,-1,-1,-1],"split_conditions":[-1.7859976E0,-1.4160796E0,7.413282E-1,-4.9830067E-1,1.8959074E0,6.888634E-1,-5.575814E-1,-1.1104814E-1,5.767415E-1,7.152729E-2,2.0826507E-1,1.2022438E0,6.994106E-1,-7.233957E-1,-3.4707233E-1,-2.635484E0,-1.0476911E-1,-2.2042194E-1,-9.746951E-1,1.1585467E0,-1.308415E-1,1.7888348E0,1.3465661E0,-8.785603E-1,1.5378694E-1,1.0763255E0,-3.2264403E-1,9.92398E-3,-4.254906E-1,2.1790798E0,6.7589074E-1,-1.3659415E-1,2.2414032E-2,1.1029649E0,-1.4189024E-1,5.0629616E-1,6.616037E-1,-9.853448E-1,1.3390564E0,-1.17107175E-1,1.0524671E0,-1.5605403E0,-1.1641902E-1,3.0202103E0,-7.0378727E-1,1.2456738E0,1.32168E0,-4.0749885E-2,8.968332E-2,-1.23637654E-1,9.573483E-1,-8.215705E-2,1.4362998E0,1.1676079E-1,-1.3823955E-1,-3.1759325E-1,1.1385168E-1,7.243048E-2,-1.1821313E-1,-1.4965494E-1,-1.2095469E-1,1.104302E-1,-1.8340673E-1,1.1174569E-1,-1.450454E-1,-1.22781016E-1,-2.059515E-1,-1.2718414E-1,-1.1813488E-1,-1.1684729E-1,1.2292059E-1,-1.04481734E-1,1.4663643E-1,3.1999838E-1,1.1598046E-1,-1.19142435E-1,-8.514771E-3,8.553915E-2,-8.988755E-2,1.0514362E-1,-1.5384433E-1,-2.2493458E-1,-1.20303236E-1,8.651174E-2,-1.3134201E-1,-1.34932E-1,1.5164951E-2,5.4196484E-2,-1.4877845E-1,4.728216E-2,-1.2841088E-1,-1.1989697E-1,6.6716515E-2],"split_indices":[13,11,3,3,3,6,11,0,9,28,22,25,6,13,28,13,0,14,9,6,0,21,11,18,3,18,28,27,13,6,5,25,26,17,0,18,17,19,20,0,18,12,0,6,9,0,2,17,22,0,14,12,8,0,0,0,0,0,0,0,0,0,0,0,0,0,0,0,0,0,0,0,0,0,0,0,0,0,0,0,0,0,0,0,0,0,0,0,0,0,0,0,0],"split_type":[0,0,0,0,0,0,0,0,0,0,0,0,0,0,0,0,0,0,0,0,0,0,0,0,0,0,0,0,0,0,0,0,0,0,0,0,0,0,0,0,0,0,0,0,0,0,0,0,0,0,0,0,0,0,0,0,0,0,0,0,0,0,0,0,0,0,0,0,0,0,0,0,0,0,0,0,0,0,0,0,0,0,0,0,0,0,0,0,0,0,0,0,0],"sum_hessian":[6.1083527E4,2.6133807E4,3.4949723E4,2.3014076E4,3.1197307E3,2.288259E4,1.2067131E4,1.7101053E1,2.2996977E4,1.7138822E3,1.4058485E3,1.7382059E4,5.5005317E3,4.0184016E3,8.0487295E3,2.298884E4,8.135206E0,1.0764764E3,6.374057E2,1.3718557E3,3.3992767E1,1.711651E4,2.655496E2,3.1645377E2,5.1840776E3,1.4241785E3,2.5942231E3,1.7751057E3,6.2736235E3,2.2751754E4,2.3708614E2,5.8171857E2,4.9475793E2,5.7284937E2,6.455635E1,1.3555059E3,1.6349764E1,1.6972193E4,1.4431596E2,1.3217458E2,1.3337502E2,2.4085231E2,7.560148E1,3.8685027E3,1.3155752E3,1.3964531E3,2.7725304E1,1.1689602E3,1.425263E3,3.3612335E2,1.4389824E3,1.9020654E3,4.371558E3,2.2750021E4,1.7322773E0,1.6301756E1,2.2078438E2,4.131516E2,1.6856693E2,2.3714052E2,2.576174E2,5.57401E2,1.5448328E1,1.3423145E3,1.3191414E1,1.0800182E1,5.5495815E0,2.7359216E2,1.6698602E4,5.0696194E1,9.3619774E1,4.772366E0,1.2860265E2,1.2406262E2,1.1678968E2,3.684102E3,1.844005E2,6.7652435E2,6.3905084E2,1.3685148E3,2.7938292E1,1.5922817E1,1.1802486E1,9.827651E2,1.8619516E2,7.278397E2,6.9742316E2,1.2715034E3,1.67479E2,1.2190831E3,6.829823E2,4.2155806E3,1.5597742E2],"tree_param":{"num_deleted":"0","num_feature":"30","num_nodes":"93","size_leaf_vector":"1"}},{"base_weights":[-1.0566735E-3,1.0536163E0,-7.7921504E-1,1.1419015E0,4.120402E-1,-1.0229812E0,-3.2892013E-1,-1.0881064E-1,1.1436187E0,-4.3704357E-2,9.743565E-1,-1.1301214E0,-6.91663E-1,2.5094658E-1,-6.207545E-1,1.1444411E0,-1.0233829E-1,2.870041E-1,-1.185944E-1,1.0312318E0,-1.2684178E-1,-1.149504E0,1.0054405E-1,3.7400126E-1,-9.350614E-1,5.980881E-1,-4.185867E-1,-2.6191673E-1,-9.76634E-1,1.1479837E0,8.0544275E-1,-6.881039E-1,7.64116E-1,-1.5036325E-1,1.0672584E0,-1.1625743E0,3.7523764E-1,-1.1506211E-1,1.3051462E0,-1.20969035E-1,1.1126943E0,2.885776E-1,-1.1230047E0,7.5147283E-1,-1.23450235E-1,6.0566795E-1,-9.7473633E-1,7.2800875E-1,-5.5151606E-1,-2.3613936E-1,-1.1785967E0,1.1482485E-1,-1.2893568E-1,1.1204785E-1,-2.6457518E-1,-1.2800762E-1,1.07732706E-1,8.721831E-2,-2.2659193E-1,-1.6791321E-1,1.0919174E-1,-1.2427361E-1,-1.16117254E-1,-1.14604406E-1,1.1977456E-1,1.3987373E-1,-1.03317164E-1,-1.1816795E-1,1.5376145E-1,1.0884171E-1,-1.1903347E-1,-1.1781862E-1,8.079729E-3,-5.1335424E-2,8.957168E-2,9.862175E-2,-1.2168323E-1,7.341069E-2,-1.2219669E-1,1.1234367E-1,-1.3989346E-1,-9.5927015E-2,2.743033E-2,4.916298E-2,-1.3070542E-1,-1.2223476E-1,-1.1662427E-1],"categories":[],"categories_nodes":[],"categories_segments":[],"categories_sizes":[],"default_left":[0,0,0,0,0,0,0,0,0,0,0,0,0,0,0,0,0,0,0,0,0,0,0,0,0,0,0,0,0,0,0,0,0,0,0,0,0,0,0,0,0,0,0,0,0,0,0,0,0,0,0,0,0,0,0,0,0,0,0,0,0,0,0,0,0,0,0,0,0,0,0,0,0,0,0,0,0,0,0,0,0,0,0,0,0,0,0],"id":13,"left_children":[1,3,5,7,9,11,13,-1,15,17,19,21,23,25,27,29,-1,31,-1,33,-1,35,37,39,41,43,45,47,49,51,53,55,57,-1,59,61,63,-1,65,-1,67,69,71,73,-1,75,77,79,81,83,85,-1,-1,-1,-1,-1,-1,-1,-1,-1,-1,-1,-1,-1,-1,-1,-1,-1,-1,-1,-1,-1,-1,-1,-1,-1,-1,-1,-1,-1,-1,-1,-1,-1,-1,-1,-1],"loss_changes":[4.6535805E4,1.3631152E3,3.5811797E3,8.22793E1,7.467143E2,7.506426E2,1.9396692E3,0E0,3.8853516E1,6.086087E2,1.6768713E2,3.8163086E2,1.3426975E3,8.922328E2,9.734016E2,2.4460938E1,0E0,5.8184576E2,0E0,1.1782446E2,0E0,3.1423828E2,3.7665683E2,1.1278718E3,9.692632E2,7.114635E2,7.473772E2,1.0891565E3,5.721489E2,1.4980469E1,2.4429715E2,4.309536E2,2.7686002E2,0E0,8.685205E1,3.1054688E-1,1.6977756E2,0E0,2.9301132E1,0E0,6.425233E2,6.658E2,2.427207E2,4.2613123E2,0E0,3.2159048E2,3.6001477E2,7.248741E2,9.898442E2,6.4088885E2,2.0019531E-1,0E0,0E0,0E0,0E0,0E0,0E0,0E0,0E0,0E0,0E0,0E0,0E0,0E0,0E0,0E0,0E0,0E0,0E0,0E0,0E0,0E0,0E0,0E0,0E0,0E0,0E0,0E0,0E0,0E0,0E0,0E0,0E0,0E0,0E0,0E0,0E0],"parents":[2147483647,0,0,1,1,2,2,3,3,4,4,5,5,6,6,8,8,9,9,10,10,11,11,12,12,13,13,14,14,15,15,17,17,19,19,21,21,22,22,23,23,24,24,25,25,26,26,27,27,28,28,29,29,30,30,31,31,32,32,34,34,35,35,36,36,38,38,40,40,41,41,42,42,43,43,45,45,46,46,47,47,48,48,49,49,50,50],"right_children":[2,4,6,8,10,12,14,-1,16,18,20,22,24,26,28,30,-1,32,-1,34,-1,36,38,40,42,44,46,48,50,52,54,56,58,-1,60,62,64,-1,66,-1,68,70,72,74,-1,76,78,80,82,84,86,-1,-1,-1,-1,-1,-1,-1,-1,-1,-1,-1,-1,-1,-1,-1,-1,-1,-1,-1,-1,-1,-1,-1,-1,-1,-1,-1,-1,-1,-1,-1,-1,-1,-1,-1,-1],"split_conditions":[-1.7859976E0,-1.4160796E0,7.413282E-1,-4.9830067E-1,1.8959074E0,6.888634E-1,-5.575814E-1,-1.0881064E-1,5.767415E-1,2.2414032E-2,2.0826507E-1,1.2022438E0,-8.785603E-1,3.4057415E-1,5.5887373E-3,-2.635484E0,-1.0233829E-1,-2.005085E-2,-1.185944E-1,-6.626826E-2,-1.2684178E-1,1.7888348E0,1.3465661E0,2.1493337E-1,-2.588338E0,1.2776982E0,-7.4005884E-1,-5.824519E-1,-3.4707233E-1,2.1790798E0,-1.5891272E0,1.360379E0,1.3475983E0,-1.5036325E-1,-2.2903927E-1,-9.853448E-1,1.3390564E0,-1.1506211E-1,1.381524E0,-1.20969035E-1,-2.7838778E-1,-2.137598E-1,3.0202103E0,-1.1357255E0,-1.23450235E-1,-4.7261924E-2,-2.450811E0,1.0416331E0,3.7172535E-1,-6.6421276E-1,-4.6571037E-1,1.1482485E-1,-1.2893568E-1,1.1204785E-1,-2.6457518E-1,-1.2800762E-1,1.07732706E-1,8.721831E-2,-2.2659193E-1,-1.6791321E-1,1.0919174E-1,-1.2427361E-1,-1.16117254E-1,-1.14604406E-1,1.1977456E-1,1.3987373E-1,-1.03317164E-1,-1.1816795E-1,1.5376145E-1,1.0884171E-1,-1.1903347E-1,-1.1781862E-1,8.079729E-3,-5.1335424E-2,8.957168E-2,9.862175E-2,-1.2168323E-1,7.341069E-2,-1.2219669E-1,1.1234367E-1,-1.3989346E-1,-9.5927015E-2,2.743033E-2,4.916298E-2,-1.3070542E-1,-1.2223476E-1,-1.1662427E-1],"split_indices":[13,11,3,3,3,6,11,0,9,26,22,25,18,13,7,13,0,26,0,10,0,21,11,17,2,2,6,6,28,6,0,22,10,0,19,19,20,0,11,0,3,25,6,10,0,17,18,1,15,8,13,0,0,0,0,0,0,0,0,0,0,0,0,0,0,0,0,0,0,0,0,0,0,0,0,0,0,0,0,0,0,0,0,0,0,0,0],"split_type":[0,0,0,0,0,0,0,0,0,0,0,0,0,0,0,0,0,0,0,0,0,0,0,0,0,0,0,0,0,0,0,0,0,0,0,0,0,0,0,0,0,0,0,0,0,0,0,0,0,0,0,0,0,0,0,0,0,0,0,0,0,0,0,0,0,0,0,0,0,0,0,0,0,0,0,0,0,0,0,0,0,0,0,0,0,0,0],"sum_hessian":[5.670039E4,2.4072924E4,3.2627469E4,2.116034E4,2.912584E3,2.116732E4,1.1460148E4,1.5795101E1,2.1144545E4,1.6092477E3,1.3033364E3,1.599312E4,5.174199E3,3.836758E3,7.62339E3,2.1136994E4,7.5495224E0,1.2485176E3,3.6073004E2,1.2716289E3,3.1707478E1,1.5745204E4,2.4791586E2,9.619562E2,4.212243E3,2.5267751E3,1.3099828E3,3.7967827E3,3.8266077E3,2.091603E4,2.2096616E2,4.1004227E2,8.3847534E2,1.7248856E1,1.2543801E3,1.5611617E4,1.3358757E2,1.2162959E2,1.2628628E2,3.057716E2,6.561846E2,5.607623E2,3.651481E3,2.3321667E3,1.9460849E2,4.6095605E2,8.4902673E2,8.5899646E2,2.9377864E3,8.2048285E2,3.0061248E3,2.0914285E4,1.7429879E0,2.0310173E2,1.7864424E1,3.0728162E2,1.0276065E2,8.102883E2,2.8187014E1,1.0565423E1,1.2438147E3,2.5307729E2,1.535854E4,4.674195E1,8.684562E1,1.2181256E2,4.4737153E0,1.0225793E2,5.5392664E2,3.641067E2,1.9665564E2,3.4914563E3,1.6002469E2,2.3847758E2,2.0936892E3,3.817112E2,7.924485E1,1.0706062E2,7.419661E2,7.2473083E2,1.342656E2,1.9666014E3,9.711849E2,4.888277E2,3.3165518E2,6.403634E2,2.3657612E3],"tree_param":{"num_deleted":"0","num_feature":"30","num_nodes":"87","size_leaf_vector":"1"}},{"base_weights":[-1.2215376E-3,1.0355984E0,-7.568014E-1,1.1251252E0,4.002613E-1,-1.0039073E0,-3.136918E-1,-1.3099715E-1,1.1273501E0,-1.4599466E-1,9.5168793E-1,-1.1125852E0,-6.723811E-1,2.0575863E-1,-6.100901E-1,1.1282256E0,-1.309028E-1,4.0036017E-1,-9.792681E-1,9.9741334E-1,-1.9331621E0,-1.1318803E0,9.646321E-2,3.518455E-1,-9.132523E-1,9.110629E-1,-1.5369433E-1,5.0133843E-2,-8.170279E-1,-1.2836224E-1,1.1289974E0,7.5427496E-1,-1.3991976E0,-1.3187081E0,6.2149096E-1,1.0250282E0,-1.7950338E0,-1.2890476E-1,-3.163768E0,-1.1448071E-1,3.6681396E-1,-1.13257304E-1,1.2509632E0,-1.1870944E-1,1.034862E0,2.7381024E-1,-1.1004184E0,9.728591E-1,-1.7172326E0,-6.7786586E-1,4.648644E-1,-8.1666404E-1,4.3436292E-1,2.9100135E-1,-1.0115684E0,1.1295418E-1,-1.5169285E-1,-1.178538E-1,1.00181125E-1,-2.5373745E-1,-1.3144758E-1,-1.5073352E-1,-1.1600659E-1,1.12181164E-1,-1.178373E-1,1.0505781E-1,-1.1851188E-1,-1.3552076E-1,-2.4954413E-1,-9.400517E-2,-3.4006795E-1,-1.1260568E-1,1.1699116E-1,-9.8249E-2,1.3443081E-1,-1.1597391E-1,1.4182931E-1,1.0208591E-1,-1.1696577E-1,-1.15890265E-1,7.2799413E-3,1.0152977E-1,-2.1326661E-1,-1.983817E-1,-1.17657684E-1,-1.0472119E-1,6.2584184E-2,8.123219E-2,-6.665478E-2,1.2508754E-1,-1.3308227E-1,9.150053E-2,-1.2672703E-1,-1.2764393E-1,1.0040157E-1,1.03763364E-1,-1.10560015E-1],"categories":[],"categories_nodes":[],"categories_segments":[],"categories_sizes":[],"default_left":[0,0,0,0,0,0,0,0,0,0,0,0,0,0,0,0,0,0,0,0,0,0,0,0,0,0,0,0,0,0,0,0,0,0,0,0,0,0,0,0,0,0,0,0,0,0,0,0,0,0,0,0,0,0,0,0,0,0,0,0,0,0,0,0,0,0,0,0,0,0,0,0,0,0,0,0,0,0,0,0,0,0,0,0,0,0,0,0,0,0,0,0,0,0,0,0,0],"id":14,"left_children":[1,3,5,7,9,11,13,-1,15,17,19,21,23,25,27,29,-1,31,33,35,37,39,41,43,45,47,49,51,53,-1,55,57,59,61,63,65,67,-1,69,-1,71,-1,73,-1,75,77,79,81,83,85,87,89,91,93,95,-1,-1,-1,-1,-1,-1,-1,-1,-1,-1,-1,-1,-1,-1,-1,-1,-1,-1,-1,-1,-1,-1,-1,-1,-1,-1,-1,-1,-1,-1,-1,-1,-1,-1,-1,-1,-1,-1,-1,-1,-1,-1],"loss_changes":[4.1150516E4,1.259041E3,3.3266973E3,1.0662109E2,8.2439874E2,7.020586E2,1.6752078E3,0E0,4.2835938E1,6.266126E2,1.815763E2,3.4278906E2,1.1890208E3,1.00240625E3,9.4649146E2,3.7539062E1,0E0,5.306283E2,2.9696014E2,1.0527173E2,1.3034889E1,2.805254E2,3.3012756E2,9.662709E2,8.6705347E2,2.1846057E2,8.4966516E2,5.512411E2,1.1371987E3,0E0,2.9617188E1,3.33934E2,9.875732E0,1.1716797E1,8.779851E1,7.628137E1,7.7628326E-1,0E0,3.4880066E-1,0E0,1.5046301E2,0E0,2.6323608E1,0E0,5.371789E2,5.7500995E2,2.3131836E2,1.7412183E2,2.1373138E0,6.836352E2,4.7314722E2,5.420769E2,9.390248E2,8.8251086E2,8.657031E2,0E0,0E0,0E0,0E0,0E0,0E0,0E0,0E0,0E0,0E0,0E0,0E0,0E0,0E0,0E0,0E0,0E0,0E0,0E0,0E0,0E0,0E0,0E0,0E0,0E0,0E0,0E0,0E0,0E0,0E0,0E0,0E0,0E0,0E0,0E0,0E0,0E0,0E0,0E0,0E0,0E0,0E0],"parents":[2147483647,0,0,1,1,2,2,3,3,4,4,5,5,6,6,8,8,9,9,10,10,11,11,12,12,13,13,14,14,15,15,17,17,18,18,19,19,20,20,21,21,22,22,23,23,24,24,25,25,26,26,27,27,28,28,30,30,31,31,32,32,33,33,34,34,35,35,36,36,38,38,40,40,42,42,44,44,45,45,46,46,47,47,48,48,49,49,50,50,51,51,52,52,53,53,54,54],"right_children":[2,4,6,8,10,12,14,-1,16,18,20,22,24,26,28,30,-1,32,34,36,38,40,42,44,46,48,50,52,54,-1,56,58,60,62,64,66,68,-1,70,-1,72,-1,74,-1,76,78,80,82,84,86,88,90,92,94,96,-1,-1,-1,-1,-1,-1,-1,-1,-1,-1,-1,-1,-1,-1,-1,-1,-1,-1,-1,-1,-1,-1,-1,-1,-1,-1,-1,-1,-1,-1,-1,-1,-1,-1,-1,-1,-1,-1,-1,-1,-1,-1],"split_conditions":[-1.7859976E0,-1.7696148E0,7.413282E-1,-4.8604634E-1,2.1870494E0,6.888634E-1,-4.480329E-1,-1.3099715E-1,3.1570253E-1,-1.1702472E-1,7.382561E-1,1.2022438E0,-8.785603E-1,-8.2587683E-1,-3.4707233E-1,-4.8450577E-1,-1.309028E-1,5.292838E-1,1.5157312E0,1.2857577E0,1.4278326E0,1.7888348E0,1.3465661E0,2.1493337E-1,-2.588338E0,9.864051E-1,5.47024E-1,5.7993103E-2,-6.041179E-1,-1.2836224E-1,-1.8931006E0,-2.0593171E-1,-1.4160796E0,-1.1814422E-1,-1.0690001E0,5.767415E-1,-1.7334133E-1,-1.2890476E-1,-2.0831303E-1,-1.1448071E-1,1.3390564E0,-1.13257304E-1,4.590445E-1,-1.1870944E-1,-2.7838778E-1,-2.137598E-1,3.0202103E0,1.3126225E0,1.0706185E0,2.5466412E-1,8.003791E-3,-1.8650155E0,4.0059403E-1,2.0106281E-1,-2.150176E0,1.1295418E-1,-1.5169285E-1,-1.178538E-1,1.00181125E-1,-2.5373745E-1,-1.3144758E-1,-1.5073352E-1,-1.1600659E-1,1.12181164E-1,-1.178373E-1,1.0505781E-1,-1.1851188E-1,-1.3552076E-1,-2.4954413E-1,-9.400517E-2,-3.4006795E-1,-1.1260568E-1,1.1699116E-1,-9.8249E-2,1.3443081E-1,-1.1597391E-1,1.4182931E-1,1.0208591E-1,-1.1696577E-1,-1.15890265E-1,7.2799413E-3,1.0152977E-1,-2.1326661E-1,-1.983817E-1,-1.17657684E-1,-1.0472119E-1,6.2584184E-2,8.123219E-2,-6.665478E-2,1.2508754E-1,-1.3308227E-1,9.150053E-2,-1.2672703E-1,-1.2764393E-1,1.0040157E-1,1.03763364E-1,-1.10560015E-1],"split_indices":[13,9,3,3,3,6,11,0,11,21,12,25,18,13,28,10,0,15,29,29,17,21,11,17,2,18,21,15,7,0,13,20,11,25,6,9,20,0,10,0,20,0,24,0,3,25,6,17,2,27,26,24,15,8,15,0,0,0,0,0,0,0,0,0,0,0,0,0,0,0,0,0,0,0,0,0,0,0,0,0,0,0,0,0,0,0,0,0,0,0,0,0,0,0,0,0,0],"split_type":[0,0,0,0,0,0,0,0,0,0,0,0,0,0,0,0,0,0,0,0,0,0,0,0,0,0,0,0,0,0,0,0,0,0,0,0,0,0,0,0,0,0,0,0,0,0,0,0,0,0,0,0,0,0,0,0,0,0,0,0,0,0,0,0,0,0,0,0,0,0,0,0,0,0,0,0,0,0,0,0,0,0,0,0,0,0,0,0,0,0,0,0,0,0,0,0,0],"sum_hessian":[5.2526082E4,2.2142031E4,3.0384053E4,1.9406627E4,2.7354036E3,1.9505365E4,1.0878687E4,1.717837E1,1.938945E4,1.3745138E3,1.3608898E3,1.4688095E4,4.8172705E3,3.9523438E3,6.926343E3,1.9383021E4,6.428095E0,8.3049817E2,5.440156E2,1.3403E3,2.0589743E1,1.4457433E4,2.3066226E2,9.171074E2,3.9001628E3,1.3337595E3,2.6185842E3,1.6530703E3,5.2732725E3,5.6700234E0,1.9377352E4,6.9449445E2,1.3600372E2,4.4898486E2,9.503078E1,1.3278022E3,1.2497874E1,1.4859556E1,5.730187E0,1.4334033E4,1.2339987E2,1.1173377E2,1.1892848E2,2.8168668E2,6.354207E2,5.311284E2,3.3690344E3,1.3037361E3,3.0023455E1,1.4173851E3,1.2011991E3,5.0736334E2,1.145707E3,7.874961E2,4.4857764E3,1.937394E4,3.411721E0,7.841937E1,6.160751E2,7.4166636E0,1.2858705E2,2.0122495E2,2.4775993E2,7.4655106E1,2.0375675E1,1.3131465E3,1.4655685E1,9.479828E0,3.0180469E0,1.0300251E0,4.700162E0,4.302289E1,8.037698E1,4.3889556E0,1.1453953E2,9.420506E1,5.4121564E2,3.5018652E2,1.8094191E2,3.2090762E3,1.5995819E2,1.2868241E3,1.6912052E1,1.832068E1,1.1702775E1,1.1046342E3,3.1275092E2,9.1919556E2,2.820036E2,1.007587E2,4.0660464E2,8.9372754E2,2.5197948E2,2.4597398E2,5.415221E2,1.9636748E2,4.289409E3],"tree_param":{"num_deleted":"0","num_feature":"30","num_nodes":"97","size_leaf_vector":"1"}},{"base_weights":[-1.4082751E-3,1.0195502E0,-7.36664E-1,1.114932E0,4.1636258E-1,-9.867346E-1,-3.0034304E-1,1.1156942E0,-9.61878E-2,-2.9246286E-2,9.267497E-1,-1.0971947E0,-6.544706E-1,1.20887056E-1,-6.447525E-1,-1.8624191E-1,1.1160891E0,-3.6753193E-1,8.284449E-1,-1.5280363E-1,9.83006E-1,-1.1164088E0,9.294671E-2,1.172094E0,-7.8384227E-1,2.867194E-1,-9.070908E-1,4.0305503E-2,-8.6866045E-1,1.119349E-1,9.2273235E-1,2.7776074E-1,-1.3287076E0,1.0615735E0,-1.3576503E-1,1.0208548E0,-1.5486404E0,-1.1292142E-1,3.5922202E-1,-1.11655645E-1,1.2055398E0,1.7361999E0,-1.10808745E-1,-1.0723424E0,-1.1573264E-2,6.42896E-1,-2.4442685E-1,8.1611806E-1,-1.20592296E-1,8.801243E-1,-4.7230715E-1,4.0413216E-1,-1.0913898E0,1.0265479E-1,-2.5684136E-1,5.547696E-2,-1.3412578E-1,-1.4627577E-1,-1.17808536E-1,1.1258607E-1,-1.6603316E-1,1.04407154E-1,-1.870348E-1,-1.1498567E-1,-2.0561378E-1,-1.1081097E-1,1.14500575E-1,-9.829125E-2,1.2961385E-1,2.187423E-1,1.0267025E-1,-1.1358601E-1,-6.357861E-3,6.882777E-2,-8.215368E-2,7.433488E-2,-1.3192317E-1,6.768554E-2,-8.419671E-2,1.1462366E-1,-1.4574383E-1,-1.3455968E-1,1.2772863E-1,-9.370423E-2,9.028416E-2,-1.2664251E-1,1.22488655E-1,9.116378E-2,-1.1583304E-1],"categories":[],"categories_nodes":[],"categories_segments":[],"categories_sizes":[],"default_left":[0,0,0,0,0,0,0,0,0,0,0,0,0,0,0,0,0,0,0,0,0,0,0,0,0,0,0,0,0,0,0,0,0,0,0,0,0,0,0,0,0,0,0,0,0,0,0,0,0,0,0,0,0,0,0,0,0,0,0,0,0,0,0,0,0,0,0,0,0,0,0,0,0,0,0,0,0,0,0,0,0,0,0,0,0,0,0,0,0],"id":15,"left_children":[1,3,5,7,9,11,13,15,-1,17,19,21,23,25,27,-1,29,31,33,-1,35,37,39,41,43,45,47,49,51,-1,53,55,57,59,-1,61,63,-1,65,-1,67,69,-1,71,73,75,77,79,-1,81,83,85,87,-1,-1,-1,-1,-1,-1,-1,-1,-1,-1,-1,-1,-1,-1,-1,-1,-1,-1,-1,-1,-1,-1,-1,-1,-1,-1,-1,-1,-1,-1,-1,-1,-1,-1,-1,-1],"loss_changes":[3.645957E4,1.1694238E3,3.0805107E3,2.8867188E1,6.318347E2,6.5800977E2,1.4926714E3,2.271875E1,0E0,4.3090372E2,1.8032544E2,3.0809863E2,1.0596986E3,7.893561E2,8.682976E2,0E0,1.003125E1,6.609241E2,2.1553394E2,0E0,1.22937256E2,2.5086719E2,2.905492E2,3.8363312E2,9.3235815E2,7.543589E2,3.3222076E2,6.0110315E2,1.2098511E3,0E0,1.10160934E2,2.868909E2,6.9177856E0,6.839197E1,0E0,8.575452E1,1.4917145E0,0E0,1.3362425E2,0E0,2.3563782E1,7.404126E1,0E0,1.9513892E2,6.463025E2,4.713944E2,8.8191956E2,7.346687E1,0E0,4.6953226E2,5.549933E2,8.737115E2,4.8792432E2,0E0,0E0,0E0,0E0,0E0,0E0,0E0,0E0,0E0,0E0,0E0,0E0,0E0,0E0,0E0,0E0,0E0,0E0,0E0,0E0,0E0,0E0,0E0,0E0,0E0,0E0,0E0,0E0,0E0,0E0,0E0,0E0,0E0,0E0,0E0,0E0],"parents":[2147483647,0,0,1,1,2,2,3,3,4,4,5,5,6,6,7,7,9,9,10,10,11,11,12,12,13,13,14,14,16,16,17,17,18,18,20,20,21,21,22,22,23,23,24,24,25,25,26,26,27,27,28,28,30,30,31,31,32,32,33,33,35,35,36,36,38,38,40,40,41,41,43,43,44,44,45,45,46,46,47,47,49,49,50,50,51,51,52,52],"right_children":[2,4,6,8,10,12,14,16,-1,18,20,22,24,26,28,-1,30,32,34,-1,36,38,40,42,44,46,48,50,52,-1,54,56,58,60,-1,62,64,-1,66,-1,68,70,-1,72,74,76,78,80,-1,82,84,86,88,-1,-1,-1,-1,-1,-1,-1,-1,-1,-1,-1,-1,-1,-1,-1,-1,-1,-1,-1,-1,-1,-1,-1,-1,-1,-1,-1,-1,-1,-1,-1,-1,-1,-1,-1,-1],"split_conditions":[-1.7859976E0,-1.9415451E0,7.413282E-1,5.767415E-1,1.8959074E0,6.888634E-1,-2.1248002E-1,4.6018746E-2,-9.61878E-2,3.8241845E-1,-8.7419903E-1,1.2022438E0,6.994106E-1,1.2776982E0,-3.4707233E-1,-1.8624191E-1,2.1755762E0,-1.9154577E-1,-1.4045628E0,-1.5280363E-1,2.438503E-1,1.7888348E0,1.3465661E0,-8.785603E-1,1.5378694E-1,1.475731E-1,-2.450811E0,9.120405E-1,-4.7247222E-1,1.119349E-1,1.4909284E0,5.3382194E-1,2.3507416E-2,4.6772346E-1,-1.3576503E-1,1.2857577E0,4.227811E-2,-1.1292142E-1,1.3390564E0,-1.11655645E-1,1.0524671E0,-1.5605403E0,-1.10808745E-1,3.0202103E0,-7.0378727E-1,1.2456738E0,-4.4057715E-1,-2.9738042E0,-1.20592296E-1,2.0082742E-1,7.2650313E-1,-5.7694703E-1,-2.0208135E0,1.0265479E-1,-2.5684136E-1,5.547696E-2,-1.3412578E-1,-1.4627577E-1,-1.17808536E-1,1.1258607E-1,-1.6603316E-1,1.04407154E-1,-1.870348E-1,-1.1498567E-1,-2.0561378E-1,-1.1081097E-1,1.14500575E-1,-9.829125E-2,1.2961385E-1,2.187423E-1,1.0267025E-1,-1.1358601E-1,-6.357861E-3,6.882777E-2,-8.215368E-2,7.433488E-2,-1.3192317E-1,6.768554E-2,-8.419671E-2,1.1462366E-1,-1.4574383E-1,-1.3455968E-1,1.2772863E-1,-9.370423E-2,9.028416E-2,-1.2664251E-1,1.22488655E-1,9.116378E-2,-1.1583304E-1],"split_indices":[13,11,3,9,3,6,11,10,0,28,21,25,6,2,28,0,16,14,9,0,21,21,11,18,3,13,18,3,19,0,12,6,26,15,0,29,20,0,20,0,18,12,0,6,9,0,7,11,0,15,19,19,9,0,0,0,0,0,0,0,0,0,0,0,0,0,0,0,0,0,0,0,0,0,0,0,0,0,0,0,0,0,0,0,0,0,0,0,0],"split_type":[0,0,0,0,0,0,0,0,0,0,0,0,0,0,0,0,0,0,0,0,0,0,0,0,0,0,0,0,0,0,0,0,0,0,0,0,0,0,0,0,0,0,0,0,0,0,0,0,0,0,0,0,0,0,0,0,0,0,0,0,0,0,0,0,0,0,0,0,0,0,0,0,0,0,0,0,0,0,0,0,0,0,0,0,0,0,0,0,0],"sum_hessian":[4.8567664E4,2.033315E4,2.8234512E4,1.7556156E4,2.7769941E3,1.7947129E4,1.0287383E4,1.7550178E4,5.9786263E0,1.483085E3,1.2939093E3,1.3467578E4,4.479551E3,4.62789E3,5.6594927E3,1.7017053E0,1.7548477E4,1.0639998E3,4.190852E2,2.8402058E1,1.2655072E3,1.3253667E4,2.1391148E2,2.9575815E2,4.1837925E3,3.98565E3,6.4224E2,1.3943195E3,4.2651733E3,1.7252805E4,2.9567178E2,6.3703345E2,4.2696628E2,3.791649E2,3.992033E1,1.2474542E3,1.8053007E1,1.3139875E4,1.1379172E2,1.02490364E2,1.1142112E2,2.3729187E2,5.846629E1,3.0456326E3,1.1381599E3,2.385661E3,1.5999891E3,9.4659134E1,5.475808E2,5.282177E2,8.661017E2,6.3509454E2,3.6300786E3,2.8781894E2,7.8528624E0,5.445244E2,9.250903E1,2.2130179E2,2.056645E2,3.7098904E2,8.175818E0,1.2381505E3,9.303618E0,1.1938027E1,6.1149807E0,3.9542294E1,7.424943E1,4.0377674E0,1.0738335E2,1.4377278E2,9.351909E1,2.865103E3,1.8052953E2,6.1066425E2,5.274957E2,2.2700642E3,1.15596695E2,6.2942084E2,9.705683E2,8.3090324E1,1.1568806E1,7.962215E1,4.4859558E2,6.475717E2,2.1852998E2,2.090509E2,4.260436E2,1.16984764E2,3.513094E3],"tree_param":{"num_deleted":"0","num_feature":"30","num_nodes":"89","size_leaf_vector":"1"}},{"base_weights":[-1.6075706E-3,1.0042802E0,-7.164103E-1,1.1015667E0,4.0185136E-1,-9.6890545E-1,-2.8759944E-1,1.1023301E0,-9.4159566E-2,-2.9077245E-2,9.0485805E-1,-1.0836236E0,-6.318342E-1,1.1303524E-1,-6.239628E-1,-1.7731029E-1,1.1027379E0,2.9935226E-1,-8.5389876E-1,-1.4830646E-1,9.600634E-1,-1.1027701E0,8.979331E-2,3.1696126E-1,-8.67727E-1,-2.2414362E-1,6.07811E-1,3.7286233E-2,-8.4950507E-1,1.1061902E-1,9.003723E-1,7.063366E-1,-7.487703E-1,-1.2443045E0,7.490535E-1,-1.4969242E0,1.0011346E0,-1.1154737E-1,3.5230124E-1,-1.1022641E-1,1.1659647E0,-1.1587503E-1,9.190663E-1,2.8556165E-1,-1.0632035E0,-2.5043538E-2,-1.3795666E0,8.338736E-1,-7.5336266E-1,7.303963E-1,-5.528254E-1,3.777843E-1,-1.0740976E0,1.00569166E-1,-2.429701E-1,8.815559E-2,-1.2247511E-1,1.02625765E-1,-1.3672599E-1,-1.3428207E-1,-1.12108134E-1,1.0867331E-1,-1.14467315E-1,-1.7103069E-1,-1.0465169E-1,-1.4010267E-1,1.0304894E-1,-1.0918702E-1,1.12246156E-1,1.2556188E-1,-9.75402E-2,1.2354089E-1,-1.19464815E-1,9.536893E-2,-1.1424064E-1,-1.1299914E-1,6.994709E-3,-1.0229198E-1,2.5954217E-2,-1.7604832E-1,-1.296995E-1,8.784936E-2,-1.562686E-1,-1.3217615E-1,9.278976E-2,-1.3288972E-1,1.10651545E-1,-1.2931614E-1,6.263105E-2,-1.2373771E-1,1.1283226E-1,8.548319E-2,-1.1417295E-1],"categories":[],"categories_nodes":[],"categories_segments":[],"categories_sizes":[],"default_left":[0,0,0,0,0,0,0,0,0,0,0,0,0,0,0,0,0,0,0,0,0,0,0,0,0,0,0,0,0,0,0,0,0,0,0,0,0,0,0,0,0,0,0,0,0,0,0,0,0,0,0,0,0,0,0,0,0,0,0,0,0,0,0,0,0,0,0,0,0,0,0,0,0,0,0,0,0,0,0,0,0,0,0,0,0,0,0,0,0,0,0,0,0],"id":16,"left_children":[1,3,5,7,9,11,13,15,-1,17,19,21,23,25,27,-1,29,31,33,-1,35,37,39,41,43,45,47,49,51,-1,53,55,57,59,61,63,65,-1,67,-1,69,-1,71,73,75,77,79,81,83,85,87,89,91,-1,-1,-1,-1,-1,-1,-1,-1,-1,-1,-1,-1,-1,-1,-1,-1,-1,-1,-1,-1,-1,-1,-1,-1,-1,-1,-1,-1,-1,-1,-1,-1,-1,-1,-1,-1,-1,-1,-1,-1],"loss_changes":[3.2305541E4,1.0934707E3,2.8435723E3,2.609961E1,5.628839E2,6.38542E2,1.3120271E3,2.0792969E1,0E0,3.7937787E2,1.5937402E2,2.7716016E2,9.4028394E2,7.415422E2,7.8934595E2,0E0,1.0224609E1,4.278203E2,2.5051498E2,0E0,1.1973718E2,2.2468945E2,2.5646524E2,7.4478455E2,7.5867236E2,6.0814044E2,5.549416E2,5.513495E2,1.0882019E3,0E0,9.8818436E1,2.4539178E2,3.095138E2,2.392456E0,5.1592648E1,1.0013199E-1,8.275037E1,0E0,1.18880196E2,0E0,2.138765E1,0E0,3.993458E2,4.6698175E2,2.1778345E2,6.4096826E2,9.93866E0,1.6662073E2,2.4691037E2,4.815912E2,6.3644116E2,7.4233795E2,4.362102E2,0E0,0E0,0E0,0E0,0E0,0E0,0E0,0E0,0E0,0E0,0E0,0E0,0E0,0E0,0E0,0E0,0E0,0E0,0E0,0E0,0E0,0E0,0E0,0E0,0E0,0E0,0E0,0E0,0E0,0E0,0E0,0E0,0E0,0E0,0E0,0E0,0E0,0E0,0E0,0E0],"parents":[2147483647,0,0,1,1,2,2,3,3,4,4,5,5,6,6,7,7,9,9,10,10,11,11,12,12,13,13,14,14,16,16,17,17,18,18,20,20,21,21,22,22,23,23,24,24,25,25,26,26,27,27,28,28,30,30,31,31,32,32,33,33,34,34,35,35,36,36,38,38,40,40,42,42,43,43,44,44,45,45,46,46,47,47,48,48,49,49,50,50,51,51,52,52],"right_children":[2,4,6,8,10,12,14,16,-1,18,20,22,24,26,28,-1,30,32,34,-1,36,38,40,42,44,46,48,50,52,-1,54,56,58,60,62,64,66,-1,68,-1,70,-1,72,74,76,78,80,82,84,86,88,90,92,-1,-1,-1,-1,-1,-1,-1,-1,-1,-1,-1,-1,-1,-1,-1,-1,-1,-1,-1,-1,-1,-1,-1,-1,-1,-1,-1,-1,-1,-1,-1,-1,-1,-1,-1,-1,-1,-1,-1,-1],"split_conditions":[-1.7859976E0,-1.9415451E0,7.413282E-1,5.767415E-1,1.8959074E0,6.888634E-1,-2.1248002E-1,4.6018746E-2,-9.4159566E-2,-8.771465E-1,-8.7419903E-1,1.2022438E0,-8.785603E-1,5.0019497E-1,-3.4707233E-1,-1.7731029E-1,2.1755762E0,5.292838E-1,1.5157312E0,-1.4830646E-1,-1.2442464E-2,1.7888348E0,1.3465661E0,2.1493337E-1,-2.588338E0,2.96552E0,1.2427965E0,-1.2530242E-1,-4.7247222E-1,1.1061902E-1,1.0660988E-2,1.1709542E0,-8.509862E-1,-1.1814422E-1,-1.0690001E0,5.6154466E-1,5.4089034E-1,-1.1154737E-1,1.3390564E0,-1.1022641E-1,1.381524E0,-1.1587503E-1,-2.0986031E-1,-2.137598E-1,3.0202103E0,1.202333E0,-3.727122E-1,1.347566E0,4.77456E0,-3.1325647E-1,1.2890148E0,-5.7694703E-1,-2.0208135E0,1.00569166E-1,-2.429701E-1,8.815559E-2,-1.2247511E-1,1.02625765E-1,-1.3672599E-1,-1.3428207E-1,-1.12108134E-1,1.0867331E-1,-1.14467315E-1,-1.7103069E-1,-1.0465169E-1,-1.4010267E-1,1.0304894E-1,-1.0918702E-1,1.12246156E-1,1.2556188E-1,-9.75402E-2,1.2354089E-1,-1.19464815E-1,9.536893E-2,-1.1424064E-1,-1.1299914E-1,6.994709E-3,-1.0229198E-1,2.5954217E-2,-1.7604832E-1,-1.296995E-1,8.784936E-2,-1.562686E-1,-1.3217615E-1,9.278976E-2,-1.3288972E-1,1.10651545E-1,-1.2931614E-1,6.263105E-2,-1.2373771E-1,1.1283226E-1,8.548319E-2,-1.1417295E-1],"split_indices":[13,11,3,9,3,6,11,10,0,9,21,25,18,10,28,0,16,15,29,0,27,21,11,17,2,3,12,21,19,0,19,4,21,25,6,9,17,0,20,0,11,0,29,25,6,3,7,17,3,21,10,19,9,0,0,0,0,0,0,0,0,0,0,0,0,0,0,0,0,0,0,0,0,0,0,0,0,0,0,0,0,0,0,0,0,0,0,0,0,0,0,0,0],"split_type":[0,0,0,0,0,0,0,0,0,0,0,0,0,0,0,0,0,0,0,0,0,0,0,0,0,0,0,0,0,0,0,0,0,0,0,0,0,0,0,0,0,0,0,0,0,0,0,0,0,0,0,0,0,0,0,0,0,0,0,0,0,0,0,0,0,0,0,0,0,0,0,0,0,0,0,0,0,0,0,0,0,0,0,0,0,0,0,0,0,0,0,0,0],"sum_hessian":[4.49285E4,1.866386E4,2.626464E4,1.6068174E4,2.5956855E3,1.653005E4,9.734589E3,1.6062633E4,5.5407715E0,1.3985135E3,1.197172E3,1.2331095E4,4.1989565E3,4.443136E3,5.291453E3,1.661227E0,1.6060972E4,1.00069244E3,3.9782114E2,2.646705E1,1.170705E3,1.213318E4,1.9791525E2,8.3601935E2,3.362937E3,2.642724E3,1.8004119E3,1.346015E3,3.9454382E3,1.5787181E4,2.737907E2,7.2103986E2,2.796526E2,3.200865E2,7.7734665E1,1.8665083E1,1.1520399E3,1.2028398E4,1.0478134E2,9.389028E1,1.0402496E2,2.4199191E2,5.9402747E2,4.8732346E2,2.8756135E3,2.255144E3,3.8758008E2,1.5443198E3,2.5609207E2,6.188789E2,7.271361E2,6.1021686E2,3.3352214E3,2.6607367E2,7.717046E0,6.6155634E2,5.9483513E1,7.209241E1,2.0756018E2,1.7237572E2,1.4771075E2,6.6332695E1,1.1401968E1,1.0766942E1,7.8981404E0,1.3344044E1,1.1386959E3,3.6298412E1,6.8482925E1,1.00241714E2,3.7832484E0,5.170589E2,7.696853E1,3.3221603E2,1.551074E2,2.715561E3,1.6005255E2,4.9985373E2,1.7552904E3,6.5428185E1,3.221519E2,1.5167146E3,2.7605274E1,1.9154767E2,6.45444E1,9.518692E1,5.23692E2,4.4662195E2,2.8051416E2,1.933907E2,4.1682617E2,1.1258365E2,3.2226377E3],"tree_param":{"num_deleted":"0","num_feature":"30","num_nodes":"93","size_leaf_vector":"1"}},{"base_weights":[-1.860749E-3,9.9109375E-1,-6.974767E-1,1.0896496E0,3.9039958E-1,-9.545299E-1,-2.7493662E-1,1.0904157E0,-9.2198536E-2,-2.9061856E-2,8.851259E-1,-1.071619E0,-6.158068E-1,1.684505E-2,-7.129453E-1,-1.6851257E-1,1.0908381E0,-3.4719196E-1,7.922549E-1,-1.44275E-1,9.394001E-1,-1.0907102E0,8.693264E-2,2.9961988E-1,-8.4970385E-1,7.512871E-1,-2.103015E-1,9.458741E-2,-9.035497E-1,1.09449975E-1,8.7885916E-1,2.4597853E-1,-1.2905535E0,1.0186508E0,-1.3123904E-1,9.7918314E-1,-1.5647E0,-1.1033298E-1,3.4591794E-1,-1.0894401E-1,1.1311296E0,1.1527199E0,-6.8975705E-1,2.710778E-1,-1.0452424E0,9.769261E-1,-1.2933981E-1,2.3063073E-1,-7.889172E-1,7.8173244E-1,-1.1888249E-1,-1.0690314E0,-2.5749955E-1,9.8866E-2,-2.1816735E-1,5.228887E-2,-1.1868405E-1,-1.4127362E-1,-1.147558E-1,-1.78082E-1,1.08387195E-1,1.0048635E-1,-1.884981E-1,-1.1385002E-1,-2.076141E-1,-1.07705966E-1,1.1018131E-1,1.2215495E-1,-9.457241E-2,-1.2098862E-1,1.4037861E-1,9.713888E-2,-1.15998104E-1,8.952027E-2,-1.1273762E-1,-1.1165903E-1,6.3019404E-3,1.0399874E-1,-1.352501E-1,5.3681422E-2,-7.3429786E-2,-9.927898E-2,1.0207579E-1,1.01025775E-1,-1.7108677E-1,-1.1678701E-1,-2.4556281E-2,8.128332E-2,-7.104497E-2],"categories":[],"categories_nodes":[],"categories_segments":[],"categories_sizes":[],"default_left":[0,0,0,0,0,0,0,0,0,0,0,0,0,0,0,0,0,0,0,0,0,0,0,0,0,0,0,0,0,0,0,0,0,0,0,0,0,0,0,0,0,0,0,0,0,0,0,0,0,0,0,0,0,0,0,0,0,0,0,0,0,0,0,0,0,0,0,0,0,0,0,0,0,0,0,0,0,0,0,0,0,0,0,0,0,0,0,0,0],"id":17,"left_children":[1,3,5,7,9,11,13,15,-1,17,19,21,23,25,27,-1,29,31,33,-1,35,37,39,41,43,45,47,49,51,-1,53,55,57,59,-1,61,63,-1,65,-1,67,69,71,73,75,77,-1,79,81,83,-1,85,87,-1,-1,-1,-1,-1,-1,-1,-1,-1,-1,-1,-1,-1,-1,-1,-1,-1,-1,-1,-1,-1,-1,-1,-1,-1,-1,-1,-1,-1,-1,-1,-1,-1,-1,-1,-1],"loss_changes":[2.8674014E4,1.0120293E3,2.6512314E3,2.3648438E1,5.0055264E2,6.013008E2,1.1802794E3,1.9052734E1,0E0,3.4157605E2,1.4118298E2,2.4953223E2,8.355648E2,9.249937E2,5.684088E2,0E0,1.0435547E1,5.275678E2,1.7525417E2,0E0,1.0933319E2,2.0152637E2,2.2694383E2,6.715251E2,6.8132056E2,6.0553314E2,1.0806484E3,6.235405E2,3.191006E2,0E0,8.765242E1,2.3047675E2,4.7368164E0,6.2204224E1,0E0,8.028723E1,1.4090004E0,0E0,1.0592155E2,0E0,1.9527412E1,2.5503992E2,2.890219E2,4.0461212E2,2.0930469E2,1.7476746E2,0E0,7.107051E2,6.7682654E2,2.6399057E2,0E0,1.9325E2,2.9654062E2,0E0,0E0,0E0,0E0,0E0,0E0,0E0,0E0,0E0,0E0,0E0,0E0,0E0,0E0,0E0,0E0,0E0,0E0,0E0,0E0,0E0,0E0,0E0,0E0,0E0,0E0,0E0,0E0,0E0,0E0,0E0,0E0,0E0,0E0,0E0,0E0],"parents":[2147483647,0,0,1,1,2,2,3,3,4,4,5,5,6,6,7,7,9,9,10,10,11,11,12,12,13,13,14,14,16,16,17,17,18,18,20,20,21,21,22,22,23,23,24,24,25,25,26,26,27,27,28,28,30,30,31,31,32,32,33,33,35,35,36,36,38,38,40,40,41,41,42,42,43,43,44,44,45,45,47,47,48,48,49,49,51,51,52,52],"right_children":[2,4,6,8,10,12,14,16,-1,18,20,22,24,26,28,-1,30,32,